file_id,x_0,x_1,x_2,x_3,x_4,x_5,x_6,x_7,x_8,x_9,x_10,x_11,x_12,x_13,x_14,x_15,x_16,x_17,x_18,x_19,x_20,x_21,x_22,x_23,x_24,x_25,x_26,x_27,x_28,x_29,x_30,x_31,x_32,x_33,x_34,x_35,x_36,x_37,x_38,x_39,x_40,x_41,x_42,x_43,x_44,x_45,x_46,x_47,x_48,x_49,x_50,x_51,x_52,x_53,x_54,x_55,x_56,x_57,x_58,x_59,x_60,x_61,x_62,x_63,x_64,x_65,x_66,x_67,x_68,x_69,x_70,x_71,x_72,x_73,x_74,x_75,x_76,x_77,x_78,x_79,x_80,x_81,x_82,x_83,x_84,x_85,x_86,x_87,x_88,x_89,x_90,x_91,x_92,x_93,x_94,x_95,x_96,x_97,x_98,x_99,x_100,x_101,x_102,x_103,x_104,x_105,x_106,x_107,x_108,x_109,x_110,x_111,x_112,x_113,x_114,x_115,x_116,x_117,x_118,x_119,x_120,x_121,x_122,x_123,x_124,x_125,x_126,x_127,x_128,x_129,x_130,x_131,x_132,x_133,x_134,x_135,x_136,x_137,x_138,x_139,x_140,x_141,x_142,x_143,x_144,x_145,x_146,x_147,x_148,x_149,x_150,x_151,x_152,x_153,x_154,x_155,x_156,x_157,x_158,x_159,x_160,x_161,x_162,x_163,x_164,x_165,x_166,x_167,x_168,x_169,x_170,x_171,x_172,x_173,x_174,x_175,x_176,x_177,x_178,x_179,x_180,x_181,x_182,x_183,x_184,x_185,x_186,x_187,x_188,x_189,x_190,x_191,x_192,x_193,x_194,x_195,x_196,x_197,x_198,x_199,x_200,x_201,x_202,x_203,x_204,x_205,x_206,x_207,x_208,x_209,x_210,x_211,x_212,x_213,x_214,x_215,x_216,x_217,x_218,x_219,x_220,x_221,x_222,x_223,x_224,x_225,x_226,x_227,x_228,x_229,x_230,x_231,x_232,x_233,x_234,x_235,x_236,x_237,x_238,x_239,x_240,x_241,x_242,x_243,x_244,x_245,x_246,x_247,x_248,x_249,x_250,x_251,x_252,x_253,x_254,x_255,x_256,x_257,x_258,x_259,x_260,x_261,x_262,x_263,x_264,x_265,x_266,x_267,x_268,x_269,x_270,x_271,x_272,x_273,x_274,x_275,x_276,x_277,x_278,x_279,x_280,x_281,x_282,x_283,x_284,x_285,x_286,x_287,x_288,x_289,x_290,x_291,x_292,x_293,x_294,x_295,x_296,x_297,x_298,x_299,x_300,x_301,x_302,x_303,x_304,x_305,x_306,x_307,x_308,x_309,x_310,x_311,x_312,x_313,x_314,x_315,x_316,x_317,x_318,x_319,x_320,x_321,x_322,x_323,x_324,x_325,x_326,x_327,x_328,x_329,x_330,x_331,x_332,x_333,x_334,x_335,x_336,x_337,x_338,x_339,x_340,x_341,x_342,x_343,x_344,x_345,x_346,x_347,x_348,x_349,x_350,x_351,x_352,x_353,x_354,x_355,x_356,x_357,x_358,x_359,x_360,x_361,x_362,x_363,x_364,x_365,x_366,x_367,x_368,x_369,x_370,x_371,x_372,x_373,x_374,x_375,x_376,x_377,x_378,x_379,x_380,x_381,x_382,x_383,x_384,x_385,x_386,x_387,x_388,x_389,x_390,x_391,x_392,x_393,x_394,x_395,x_396,x_397,x_398,x_399,x_400,x_401,x_402,x_403,x_404,x_405,x_406,x_407,x_408,x_409,x_410,x_411,x_412,x_413,x_414,x_415,x_416,x_417,x_418,x_419,x_420,x_421,x_422,x_423,x_424,x_425,x_426,x_427,x_428,x_429,x_430,x_431,x_432,x_433,x_434,x_435,x_436,x_437,x_438,x_439,x_440,x_441,x_442,x_443,x_444,x_445,x_446,x_447,x_448,x_449,x_450,x_451,x_452,x_453,x_454,x_455,x_456,x_457,x_458,x_459,x_460,x_461,x_462,x_463,x_464,x_465,x_466,x_467,x_468,x_469,x_470,x_471,x_472,x_473,x_474,x_475,x_476,x_477,x_478,x_479,x_480,x_481,x_482,x_483,x_484,x_485,x_486,x_487,x_488,x_489,x_490,x_491,x_492,x_493,x_494,x_495,x_496,x_497,x_498,x_499,x_500,x_501,x_502,x_503,x_504,x_505,x_506,x_507,x_508,x_509,x_510,x_511
id10384/vxBFGKGXSFA/00006.wav,-23.354128,-5.2216473,12.24058,15.430451,1.7915112,-0.5191178,-20.50967,-12.18144,11.994558,5.6311245,-16.324741,-14.90121,15.361739,10.337745,13.430984,10.740664,8.689327,8.553175,1.8063303,8.892543,11.073563,11.795401,-3.5676568,-15.43298,-18.872532,-2.3202004,-14.941276,8.020392,6.932328,19.885595,-0.91523755,6.4542327,8.0375595,1.3739529,9.297605,-21.308369,7.9176855,9.996723,-10.0505,-15.422201,5.259658,-5.8586,11.315577,12.432192,13.596067,-24.84859,-4.7705126,3.457459,-22.963535,22.523909,2.4540367,10.111003,6.6333814,12.357061,-18.087318,2.6232474,5.3611546,3.7799656,10.480055,5.9837966,10.790664,-2.5850575,-2.679082,10.917051,2.8197095,13.229262,3.5435464,-11.87961,-17.00179,-14.043996,7.7447233,3.1779644,-2.5753365,5.7488594,12.358393,11.939694,4.531204,7.075236,-18.721249,-20.198185,-26.122995,-24.131508,-25.416378,-19.87749,-8.100646,-22.140764,-26.532701,10.284669,7.0121303,14.819133,8.194232,-24.672989,4.4269347,-21.392807,11.891535,-4.4953537,14.206516,13.703933,-4.5637383,-25.343931,8.049145,-31.366177,-24.62863,18.450043,8.638889,-11.409314,5.9754443,21.228256,9.871852,6.677078,-20.393126,10.282252,16.792894,5.394027,9.040103,13.044966,-23.342314,-2.7471645,-20.825796,0.89082617,5.675448,-24.92956,10.178239,10.126864,-15.696013,12.717639,-15.2590475,7.2837496,12.805424,5.459675,7.2982683,12.2045765,8.967936,14.163773,10.024717,-20.614954,-27.054672,16.47032,-18.35278,-8.86771,7.9240055,0.6926437,-1.2152923,6.83959,-19.968596,7.6142225,4.4386005,-8.152075,13.808142,-16.397787,16.878366,-13.279705,-14.4320135,12.99868,10.593508,12.084651,10.430693,-23.330688,-23.815456,14.421645,10.659419,5.5838647,14.559083,-13.238969,6.7826214,3.111252,13.618134,5.254902,16.27785,10.0145,-6.3000574,-26.670551,16.158262,-18.406422,-9.467017,3.5795882,-18.904284,5.207557,8.687434,-21.4528,9.852711,-18.903341,5.574169,13.665034,-13.768976,-2.4730208,12.323784,10.436283,-23.21877,-20.395346,1.3534809,7.3720665,-26.390009,13.689164,12.154825,9.417443,9.447534,8.7462,11.451994,2.7353692,6.509013,8.481507,-12.664257,2.710757,7.940052,4.864157,11.436479,5.916527,11.173683,-4.6839023,0.15062642,-17.292665,-19.742006,11.766511,-15.787434,13.095776,14.119818,-25.524593,12.5779915,9.461571,-21.041897,6.283261,-24.26652,-9.373235,14.651197,20.520226,14.053333,19.815855,10.880158,12.21982,-4.7325926,7.049604,9.52198,-6.355293,5.8645487,-8.587923,13.0067425,3.6423693,-0.22369899,13.469897,-17.304142,5.484568,-20.784294,14.039234,-20.665058,13.097414,11.334565,7.2817707,6.280901,7.516665,8.406371,7.0322165,2.065581,-20.916462,4.550158,9.552873,6.752325,13.917531,-20.737549,15.949753,9.153485,-24.565674,12.48284,7.851314,0.37485453,12.868918,11.44339,4.9809504,9.787507,-15.297421,11.185594,4.76772,12.203722,-3.3349817,-15.984017,8.220178,12.568288,8.5378,-12.7746105,-19.858458,-0.23705164,13.0639715,14.742573,-25.687717,-11.037185,9.380287,7.58818,10.86094,-22.541447,1.4544514,6.2723527,3.9780114,-8.801305,11.2561245,-5.6053267,8.246904,10.153955,7.915394,3.4976966,4.180771,15.010203,11.456592,5.7171173,-22.343378,4.579901,14.945161,12.631965,15.477474,15.707942,9.429515,12.961654,11.589488,-4.274416,12.475033,-22.323261,-20.589369,-6.81026,8.033186,-18.549767,14.264586,-19.026142,8.876432,-11.736752,1.7777973,7.1398964,-23.59814,10.383293,13.099978,-15.307937,-23.087326,-20.755056,6.137494,10.307497,9.178058,-14.828709,6.2242303,6.9490056,2.327398,5.0435095,-14.867792,6.498828,-18.350948,13.687375,0.7075133,-22.217432,2.8893125,11.81344,8.624541,-12.197456,-18.846392,-15.125293,-0.7605858,-18.771101,27.633335,9.692659,-12.411626,-2.1765633,15.661645,-9.246274,-3.9160578,-27.476473,6.5511894,3.2499292,3.1696866,16.060944,2.2080414,-17.685741,2.6985307,5.396678,10.996454,3.4893398,9.452878,-18.78508,7.4051433,-2.953692,-0.8048393,5.6110325,0.49587077,11.57922,9.333705,-18.790726,-30.208637,6.0643473,6.863776,4.8813953,-13.448361,7.7771144,-14.902859,6.556036,7.455904,9.646409,8.375102,-14.833022,3.026333,16.519123,5.044004,10.052544,-22.195988,14.6569195,-1.8300797,2.9460773,-13.34728,3.7931309,-1.8186654,4.6528788,2.4128575,1.6413395,-25.64791,-18.005932,-23.794632,-10.244208,12.7688675,5.9170284,-3.8985791,14.156277,-17.625156,-1.9056307,-22.933903,-33.230423,-11.529832,-15.384762,-1.2979496,15.674961,-9.793365,-14.327358,8.412648,17.141073,9.493786,9.375107,-13.105141,-17.12336,-3.9029822,-7.782699,17.10456,7.1861415,3.1292827,14.262459,12.61347,-12.379887,-26.823978,3.7586482,16.255636,6.679671,1.3759255,15.19933,6.692183,17.056496,3.0115016,4.0126414,-4.967553,8.653069,10.138072,9.96519,17.204435,6.059322,10.355125,9.539099,-16.815577,-20.154556,10.036154,-3.1663394,8.919333,15.507827,6.638204,-20.9982,8.948748,23.476076,-8.141522,8.992391,5.342524,-0.86335933,11.2425165,5.185686,1.4278072,-8.361374,-24.549166,1.8811762,-1.8634917,12.055305,12.88826,-17.878954,-15.97066,5.2896824,4.945066,9.985808,7.504485,-17.251938,8.956677,0.27179572,-4.0900145,-17.99328,19.443253,-12.334748,7.0915833,-6.8757296,7.5105433,-23.23812,11.585832,-20.740746,-13.789975,2.097692,11.640508,-26.862387,6.1707296,-5.6719594,-3.8046937,-16.238195,11.366379,17.722548,7.378318,11.428824,-19.350277
id10384/vxBFGKGXSFA/00007.wav,-24.505468,-8.043333,8.051411,11.658402,-0.3955564,-8.682104,-19.021248,-10.961925,12.948086,5.389829,-22.6559,-16.990168,14.240111,10.579679,12.903334,10.224539,8.2088585,11.107803,2.2257407,8.147184,10.656503,8.318212,-3.4302814,-16.953356,-16.400904,-2.9583702,-19.266567,11.222589,7.8659496,15.432183,-0.9143994,10.631861,7.8583374,0.21004897,6.80634,-23.800924,4.474783,7.4141974,-10.0813465,-15.149457,3.0777106,-3.2112198,13.320498,13.230735,14.235001,-23.480873,-4.9459743,3.4962783,-23.347935,23.95739,3.721481,13.591408,7.0605083,8.905493,-18.624605,1.3641623,7.501638,4.944448,9.840798,4.2031016,8.687546,-2.6401103,-2.9794478,8.906279,4.6952896,12.721816,6.504758,-13.36708,-18.672901,-12.504392,8.0110235,3.5874913,5.804107,5.4496374,15.08381,11.445626,2.1151187,1.5678484,-18.30378,-23.258951,-25.003374,-18.053873,-28.691435,-16.6968,-8.649214,-22.414026,-20.461277,8.498346,2.5418625,15.13889,7.859876,-22.091835,4.9388328,-22.297096,13.822126,0.36321214,8.933147,9.867411,-5.291413,-18.825047,8.391712,-31.699162,-31.11328,17.706974,6.5989933,-6.0587916,7.558759,21.46171,6.043635,7.1287823,-21.818977,12.224612,17.955936,5.7390842,4.210492,10.14324,-20.383623,0.02483396,-18.773615,-0.03804249,6.5767083,-29.377205,10.651711,10.419695,-15.728604,14.143331,-14.425288,4.1928434,13.256144,8.035005,6.9062147,12.751275,10.140508,16.342169,8.208515,-22.393242,-27.655197,14.282132,-13.561882,-6.520081,10.917498,0.5384256,-5.4035997,7.011539,-18.968866,6.6837854,5.318738,-5.9015527,16.60772,-17.81071,20.323753,-9.101359,-16.270054,11.105878,7.6770015,10.850953,8.704493,-22.966291,-22.751389,12.662186,10.156783,2.1458347,9.817173,-13.863708,3.854816,3.0681372,11.197518,5.060966,12.617288,11.453381,-3.3651242,-27.20027,14.671916,-16.478464,-7.6267114,6.8630686,-17.0408,4.7751503,7.926087,-21.108362,14.095066,-17.812426,8.987668,14.525079,-12.331068,-2.7528045,8.7301035,8.1339,-25.856691,-18.737917,3.2426941,7.1905117,-23.316902,13.403144,9.5876665,7.78234,12.789608,6.6654186,13.1092415,-0.81625926,11.943199,9.8825865,-15.123763,3.1733413,4.918085,4.355965,13.709506,7.366208,12.900994,-5.1785955,0.67442733,-17.034153,-14.527825,13.945079,-18.849888,11.540306,15.559531,-27.633965,10.960133,6.0407305,-17.77995,10.272618,-23.947088,-9.701925,13.610685,15.765299,17.174744,21.99782,15.43611,7.804581,-3.1816068,8.248662,7.9450774,-11.168509,8.15444,-6.1342735,14.623224,5.679683,-0.18925169,14.256164,-17.337938,5.1820407,-19.04169,8.971595,-16.297411,10.900011,15.71832,5.3536234,5.7036333,6.852018,9.292182,6.5836287,2.1568153,-15.526774,0.75365233,10.663082,4.939558,8.632027,-20.905943,15.581635,12.192492,-19.055527,14.352594,6.35043,0.15194581,10.843103,16.52775,8.44721,9.903239,-15.685741,10.566831,-0.32461715,10.32729,-9.147165,-13.86242,7.637159,14.596896,7.7329526,-15.017538,-19.793005,0.061365094,12.035634,10.017573,-23.100418,-10.549657,7.1322618,4.629387,12.348622,-22.51565,1.0108534,8.105357,3.968874,-6.5605693,12.691529,-8.814945,10.511439,9.353903,6.228099,2.9210153,6.4114037,12.9906435,12.518225,5.9838266,-24.885962,2.4726403,11.562805,13.895737,16.573359,11.6277075,16.239168,10.144563,9.518056,-4.813022,14.6513405,-21.883333,-17.098509,-6.280092,10.742994,-18.026737,20.44126,-19.934519,11.729151,-12.613935,2.524943,11.72013,-19.628862,13.470008,14.013961,-20.367298,-25.788828,-20.228552,3.2878928,9.440649,11.395246,-21.47089,10.506413,7.953253,-3.385256,5.599314,-12.255228,4.7124314,-15.844437,12.157693,0.9382135,-18.403912,1.2885863,12.903998,7.5506735,-10.836929,-22.39288,-15.262228,-7.000189,-22.13828,25.217937,8.439314,-12.10935,-1.8972882,11.5483055,-7.5447836,-6.1545186,-29.018143,7.074892,2.8300595,3.6695929,18.811834,-2.0212598,-14.414606,1.6739818,9.583171,10.321851,3.370142,11.839963,-18.274055,6.310284,-3.1628013,-0.7742184,3.5893571,0.90627974,14.688122,9.845836,-18.368683,-29.056534,5.1788273,5.08025,5.1548257,-12.453687,9.564278,-15.764293,6.265025,9.134223,10.253563,3.7434459,-11.349061,8.30705,15.266233,5.0174246,8.065626,-23.643414,8.867375,-1.7927455,1.9414856,-12.945351,4.4917703,-0.73927605,4.154932,2.0322466,0.14979644,-23.851917,-18.688646,-20.453722,-9.730959,13.413265,6.9501367,-3.6432323,11.287713,-18.372793,-2.6739097,-21.452686,-34.01921,-11.930603,-13.551915,3.1724908,11.270882,-13.038352,-16.210772,7.4684105,16.353298,13.191329,11.015417,-11.070557,-15.499143,-4.35057,-8.310848,15.546914,6.5527472,0.9544899,12.138384,5.5463,-10.823656,-25.290619,8.174612,14.043352,6.69331,1.3529689,6.497642,7.0988197,19.986626,2.7499402,4.617793,-3.960435,10.401179,9.341126,4.868112,10.822431,5.3161445,12.287726,11.262951,-18.535753,-17.730282,8.347351,-3.192535,7.5792356,13.974994,7.145443,-23.327545,9.605367,18.664104,-10.585816,7.2053194,4.1912594,-0.8063449,6.1865067,4.687838,1.4031862,-4.0714216,-21.571589,1.9443313,-1.6668167,11.269242,8.907028,-17.641264,-15.228095,8.157784,1.7879709,9.09225,7.1816134,-16.711367,9.901591,-2.0476067,-3.7463348,-15.053963,18.19138,-9.779711,9.669411,-7.177476,6.696736,-24.726025,9.284287,-20.766584,-15.511841,2.0791726,9.080328,-26.868261,6.5156245,-3.9966216,-4.0341673,-16.338655,8.985258,14.625571,11.528162,8.261323,-19.29004
id10384/vxBFGKGXSFA/00005.wav,-25.886944,-6.220237,12.843323,12.866706,5.1783957,-1.0256752,-19.521687,-9.459463,12.362989,5.665018,-15.680034,-14.461111,16.641624,8.624777,11.362511,12.434256,7.4551053,11.7798395,1.8770161,10.409407,11.305397,8.65783,-3.5851705,-18.517609,-16.197582,-2.5438347,-20.426659,5.5663605,9.660862,13.433253,-0.8117761,12.659001,2.661264,5.2518997,7.347686,-23.876884,8.024865,6.7558556,-10.684388,-12.4302225,6.987058,-5.8907757,13.852145,9.820808,11.208815,-25.234608,-4.462759,2.9353623,-28.45102,24.508781,4.212419,12.108364,5.570056,13.128859,-19.662539,3.7439072,3.660775,4.9382715,10.675655,4.1138134,8.226328,-2.6914625,-3.2619367,11.76437,5.901516,10.060509,4.293566,-12.299137,-16.60026,-15.553763,8.501067,3.5230255,-3.211648,6.3474593,12.699042,13.284247,4.237594,4.879896,-20.92027,-20.331629,-21.509665,-18.509096,-25.196001,-19.31268,-7.87749,-22.574175,-24.674591,11.193482,6.9086356,13.92593,7.734571,-21.96395,5.627897,-20.06916,10.934774,-1.8154011,13.794767,12.340028,0.81753534,-24.558899,8.790821,-26.583849,-24.798952,13.409062,11.510378,-11.54845,9.169993,16.93241,12.005753,7.8090277,-24.292122,10.888589,18.198317,7.7282915,9.504354,13.287996,-24.700994,1.1245286,-14.758008,1.5710746,5.1804023,-25.799095,9.431538,11.822286,-15.183284,12.279927,-14.406818,11.135806,15.135123,4.101549,1.4875824,11.803687,7.453216,15.706704,11.239526,-21.510384,-25.95925,15.745502,-17.717836,-13.50982,6.596015,0.90086925,-10.367584,5.236595,-18.64147,4.6088977,8.589316,-9.744609,10.202673,-16.332714,16.92149,-13.466848,-15.629076,12.172275,8.155647,11.325385,14.198277,-21.884663,-23.65449,9.738533,7.849163,3.0734913,11.033949,-11.570674,9.780318,3.218071,13.173145,5.045167,14.895494,6.198451,-3.141107,-24.487038,16.943783,-16.272228,-10.383742,6.5403914,-16.183142,6.2307053,9.461086,-22.664396,12.133814,-22.408726,8.597975,13.621746,-13.965337,-2.4439766,7.379546,11.23615,-26.24812,-19.393005,-0.4036645,7.082105,-25.53911,11.034395,11.676818,7.381276,10.202458,7.3114104,14.061964,1.1401206,7.657089,9.167294,-12.642412,2.522741,9.396479,4.948736,14.9095335,5.2075324,10.273881,-8.299738,0.3494896,-22.311024,-22.626022,12.875773,-18.95298,15.607697,14.861691,-25.473652,12.02002,7.6742606,-19.278252,10.849529,-24.47715,-12.631021,13.843466,17.252457,13.542709,18.66774,10.46385,9.270236,-2.119705,5.029877,7.2244697,-9.931568,6.0910883,-4.663442,9.679299,8.424,-0.20610128,12.982495,-15.909737,5.3496013,-18.269379,11.912434,-15.398475,12.8042965,9.396346,6.8931956,5.663074,8.540546,5.3558073,6.318387,2.1173136,-17.963432,2.4629056,11.402814,3.5863688,11.576857,-17.864805,15.233334,8.811218,-19.094597,13.069992,6.525403,0.3161792,12.047587,12.44401,10.401502,9.57959,-14.618542,9.794688,3.978675,14.432899,-8.05757,-17.49442,9.770835,11.600559,13.590473,-15.013877,-15.229328,1.8031986,14.98184,14.242421,-25.894148,-12.53322,12.32625,7.433499,13.548734,-16.360472,1.598207,7.956974,5.7819643,-6.0177174,12.609933,-6.8478637,6.450233,10.630071,11.867925,4.939344,6.4450617,14.379474,10.428418,5.200385,-24.70801,3.3755147,12.625436,14.735563,14.097977,12.107647,12.979869,12.717142,12.100217,-4.0630913,12.543522,-20.667686,-22.818542,-6.672563,7.8841667,-17.016808,15.569958,-15.836918,7.9753785,-10.010468,2.0158494,10.7306595,-21.717083,13.083302,13.263368,-20.192167,-21.257448,-19.095251,7.9059987,10.133507,10.462884,-20.590788,8.686647,10.690233,-2.011783,3.4864535,-13.112903,10.230783,-16.128906,16.305773,-1.0697818,-23.43432,5.9924436,12.405965,8.950447,-10.206041,-22.59951,-17.59565,-6.480444,-17.923096,27.066582,13.323929,-12.186132,-2.2478776,14.841389,-12.301195,-1.627356,-26.121778,7.036225,5.9445014,3.193366,15.273225,1.0604985,-15.864395,3.140687,10.081059,10.707435,3.6811922,9.691108,-20.91288,5.9714627,-3.0307186,-0.8454837,5.8804803,0.25725162,14.381873,8.797217,-18.14503,-28.14381,8.196378,7.2770953,4.492001,-13.591111,8.595793,-14.02544,8.154779,6.8951855,7.612365,5.83468,-12.295447,4.886598,17.024487,2.1305869,9.996009,-21.416283,11.8507595,0.8752791,5.6726327,-14.563182,2.394279,-0.18328586,6.7268662,2.1376896,3.0348985,-24.387032,-17.383808,-20.084074,-8.747025,15.585254,7.2483835,-4.088084,13.067588,-18.030905,2.9863024,-23.302778,-32.049614,-7.781665,-13.998162,2.4748952,12.0791,-8.670605,-14.655796,9.230022,18.706915,12.713521,9.779212,-14.117095,-15.869678,-4.5736456,-7.6908484,15.313534,6.8037267,3.5899558,14.88146,8.552775,-12.7397175,-23.46313,4.27999,15.75105,5.121475,1.8536971,10.306328,7.610671,14.912765,2.9122186,5.221489,-5.42657,9.249811,9.858872,12.60219,12.957424,6.1015825,11.163317,11.545485,-19.078934,-21.24923,12.246345,-3.3984475,7.748343,12.281962,8.487838,-21.15498,10.792905,16.138283,-8.64298,9.390875,5.2061205,-0.8306527,13.235149,3.1153827,1.3870347,-2.368719,-20.922464,1.8827795,-1.6767383,9.702523,12.040417,-18.512142,-16.99298,8.949878,4.3751283,9.042367,4.766842,-15.997019,8.064885,-4.0398455,-4.1146355,-14.524969,19.170897,-12.957578,10.137407,-7.7960787,6.470204,-25.910587,13.072228,-16.954208,-14.152628,2.217668,11.925115,-24.904192,3.4112892,-3.5647378,-3.2624264,-13.783454,6.580886,14.320321,9.41615,11.227883,-17.160492
id10384/vxBFGKGXSFA/00004.wav,-26.685034,-7.0059557,10.387636,13.525033,0.91744024,-6.970324,-21.47152,-10.747233,9.679843,6.068498,-19.31835,-15.647738,19.221,12.833689,10.179368,9.126065,5.517877,12.196265,2.9350452,8.485787,11.7594,11.8821535,-3.4306006,-18.090872,-17.769472,-2.6527138,-18.993788,10.277046,8.165068,18.991776,-0.8921865,8.772148,4.686242,3.7548199,7.5246468,-20.25242,6.2410965,10.670855,-15.153943,-16.194466,1.3432529,-4.2256236,15.576694,11.273996,15.714831,-28.376987,-5.0821295,3.5816064,-22.323837,25.134918,4.7265234,8.146989,3.8773644,12.194664,-17.71596,0.24790095,6.166221,5.0850267,8.2157345,3.7826698,8.71499,-2.8975203,-3.0832713,10.598445,5.42788,9.824478,6.0743337,-11.72756,-19.23302,-17.917295,6.74329,3.4009087,-2.232876,6.3273473,12.26572,15.687894,3.3130975,2.485946,-15.103061,-15.027527,-27.467157,-15.871545,-29.757587,-20.572033,-8.980849,-18.318289,-22.203024,11.857081,5.630372,12.935405,8.500662,-24.0941,5.155561,-22.33224,11.856187,-1.488944,11.005969,15.931929,-0.60390264,-25.47531,7.6038523,-29.194809,-29.377174,17.020678,2.3111947,-13.3122835,4.8099475,18.820873,10.119786,12.122758,-23.873423,12.176256,18.260511,6.8825903,8.850561,12.175493,-21.71533,-3.947083,-16.985476,0.62324995,7.8749638,-24.338316,6.371219,12.362766,-17.215776,15.692549,-14.701127,6.6159296,14.249248,7.982616,8.3616085,14.682259,10.3735895,15.332736,9.259808,-22.919502,-25.151249,13.673747,-18.15093,-9.038909,8.52996,0.7159792,0.9519318,8.139798,-15.896573,7.387014,1.7978231,-8.56886,14.606119,-17.231476,14.477843,-8.9195175,-12.473782,14.895706,7.904861,13.853896,7.806994,-23.49355,-24.006454,9.780977,8.017995,5.84749,11.603688,-14.096667,6.3801646,4.2329874,13.514804,6.1509056,15.974763,9.649942,-4.6652317,-28.380926,14.882085,-19.902344,-10.964411,5.1964984,-20.795496,5.2267737,7.8807945,-25.707186,11.727927,-16.699514,12.143489,16.13452,-11.29905,-2.7437088,10.74569,9.827787,-29.814735,-16.806995,-1.1310169,2.9889872,-24.745447,12.64241,10.053807,9.660734,11.802581,10.010049,14.534628,2.0090294,9.407096,9.79206,-13.305734,2.6917605,5.632821,5.615215,13.78675,12.173428,9.420587,-2.3504586,0.26115164,-20.573227,-18.589823,17.621506,-16.28368,12.707033,15.638797,-23.448654,13.748341,6.3037276,-19.397892,7.72427,-19.61282,-9.304713,12.873199,17.418587,16.256866,20.974201,14.076518,12.179698,-7.0600796,8.48845,6.473003,-8.87535,5.2666416,-3.5143292,13.606344,6.9875717,-0.31381875,12.131627,-15.220623,6.1248765,-20.621693,11.096351,-19.263992,9.833654,13.2605,5.0979595,1.1792846,5.530747,7.990356,5.3230486,2.1564748,-19.70675,-0.121529326,14.168889,4.9920607,15.910002,-21.975965,16.608177,12.766605,-21.10166,10.970481,15.120024,0.39103585,13.045899,12.268858,7.530787,12.132129,-18.884327,10.822353,4.7635965,10.033035,-7.806312,-18.97934,11.826859,12.616107,9.63186,-14.788879,-14.663152,-0.866568,12.358867,12.496613,-25.360508,-11.598574,7.015939,3.4799445,11.127956,-21.994787,1.3343452,7.354675,1.5917293,-10.332802,14.27638,-6.942528,4.3489366,11.645634,8.732783,3.4274673,6.4149113,12.748892,9.211546,5.8904915,-21.797668,4.968816,13.032966,14.571154,14.127855,11.910997,14.57946,8.583043,9.633303,-6.824504,14.348602,-21.64915,-17.299768,-7.107687,6.0651016,-17.333477,17.703955,-16.291555,12.373974,-14.741766,2.4408324,10.861211,-21.939604,16.672283,19.010817,-18.38958,-20.408567,-20.434277,2.2862544,9.241582,9.532532,-15.854762,8.474192,6.0937276,-2.1224244,4.94992,-16.628916,9.440702,-19.589615,14.382353,1.3695116,-19.778542,4.544706,9.734491,9.242746,-9.629488,-22.554766,-17.107267,-5.8294325,-18.323072,27.389072,13.744991,-12.731046,-2.2150793,11.217537,-7.175741,-7.330414,-28.777094,8.623866,2.3569417,5.9503546,14.551329,-2.8250659,-15.237413,2.799844,11.918383,10.766318,3.6705525,5.1529937,-16.817368,8.78401,-3.2242975,-0.825051,13.391175,0.8438514,9.83301,9.933442,-20.321117,-31.672602,2.6490827,7.81814,3.079113,-14.008568,6.2116275,-16.410858,12.532869,7.845974,6.1098247,4.5330157,-10.919326,3.1764402,17.613146,3.0443337,7.485759,-23.520155,12.477409,0.11974447,3.150165,-12.462029,4.9814315,-1.2331198,6.7286186,2.0145395,0.5609759,-25.27277,-20.156841,-24.12948,-8.46197,15.907856,5.856484,-4.3465724,11.765275,-17.437038,0.18724662,-23.477173,-33.762463,-12.247519,-13.803919,-0.045437917,11.635255,-9.858839,-16.823603,6.542659,18.707367,9.92914,7.254606,-11.371696,-13.363946,-4.533146,-8.478991,13.005899,7.446125,2.1039834,13.235996,9.918909,-10.745257,-22.886425,5.3265476,12.420055,4.0509834,1.3986189,13.382377,10.854742,11.486698,3.0496047,4.040737,-4.5632124,8.581032,11.69308,8.106088,19.736723,6.264965,11.617573,7.5603046,-17.07547,-17.90748,10.6398,-4.01154,7.828051,15.881551,7.8982134,-22.229744,10.897545,15.718474,-7.0381665,10.087907,4.0228167,-0.8329955,6.894215,8.186094,1.563725,-7.656609,-20.97562,2.9370716,-1.7008085,13.169542,13.035888,-18.928213,-15.548097,4.719712,1.471833,8.50218,7.2864404,-18.09936,3.4903963,0.015589021,-4.395193,-16.359507,19.042091,-11.533388,6.277764,-6.3339067,5.0083623,-20.791458,11.3011265,-23.045532,-14.859431,2.166006,12.191868,-24.744322,8.596687,-11.971527,-4.3057866,-19.009026,11.050454,15.358821,6.720806,9.9443655,-21.631676
id10384/vxBFGKGXSFA/00001.wav,-28.96778,-8.30089,12.400032,11.168025,1.2902199,-7.722721,-17.906452,-8.237776,11.43465,5.8659167,-18.311373,-14.414264,16.430368,11.922271,9.827636,14.950983,6.9826674,7.140527,3.1367664,9.135392,11.930834,10.346401,-4.059052,-16.98985,-18.28142,-2.0974379,-17.592743,12.675337,8.507492,13.885277,-0.7425264,10.336988,4.8734026,0.67517,7.0526958,-21.900194,10.471297,8.876123,-7.1839023,-16.6608,8.192282,-1.8628691,15.280053,12.2931185,10.888821,-26.912672,-4.9079847,3.590289,-24.317959,25.282692,4.5282483,8.692526,4.3200126,13.581823,-19.60548,0.12414752,2.6056712,3.3446922,9.547747,2.7356994,10.319613,-2.8546004,-3.070247,13.273648,1.5734125,9.357672,8.683644,-14.216469,-16.978962,-13.914718,9.972838,3.6299396,-0.8067149,6.083585,11.13612,10.8064785,3.182812,6.937115,-19.149242,-16.293585,-25.901022,-18.074247,-28.363611,-22.765486,-8.333075,-22.875074,-26.630808,10.908664,4.445656,13.589623,7.9443116,-24.097992,5.186231,-21.157919,14.705221,-5.948354,11.6183195,13.546276,-0.32549316,-28.139187,5.428362,-25.503859,-31.512518,13.06999,6.6912985,-8.662974,7.420852,15.915059,7.549583,12.918613,-26.064037,7.2168765,18.72612,7.8768244,8.638483,12.366411,-19.521084,-0.83501667,-13.361252,6.1931486,5.6348033,-26.764223,8.586432,9.094862,-16.029,12.2438,-18.420847,10.39926,14.23255,6.8367586,4.1807313,17.390928,8.278386,13.9513235,12.307487,-20.093918,-24.5502,13.443501,-16.037405,-7.2517347,9.506771,0.5560049,3.0267432,7.882903,-16.452456,5.3048143,2.0016477,-5.313647,13.100068,-16.457783,14.566472,-12.821186,-15.54809,12.081398,9.049985,11.656325,9.441983,-20.09527,-24.442389,9.411201,12.724751,6.8639708,11.180487,-9.168397,6.719613,3.5229318,13.183392,4.6024466,15.965544,6.4364195,-4.0284324,-28.674074,14.023676,-23.01715,-10.396884,5.154715,-22.065163,6.7757387,5.6370273,-26.999035,9.529992,-21.406773,9.267982,13.708384,-15.717528,-2.6081202,9.136848,9.566518,-25.706673,-14.924016,3.0248842,8.425533,-26.492388,12.685884,13.075787,7.4138293,11.707238,10.044588,14.880041,2.1515045,6.644544,11.07888,-13.360566,2.5417783,4.7409096,5.522724,13.278789,7.8702316,8.129882,-2.2504063,0.43623072,-20.843124,-17.457197,12.509915,-18.653683,12.063501,11.151846,-24.036705,12.51942,7.6002393,-20.412823,8.930507,-22.80602,-5.820971,10.299341,12.457893,11.074033,18.410433,14.52861,13.059891,-1.6829257,8.092412,4.262443,-8.735899,1.9992242,-5.13457,11.790091,6.5935574,-0.38371432,14.709304,-15.158823,5.2406497,-19.770233,13.009409,-19.286942,9.065132,8.862943,7.3489313,5.63027,9.389014,9.442113,7.759287,2.333837,-20.594519,-1.4571931,12.184169,3.103928,13.378638,-19.061106,15.757175,7.6787314,-22.361687,7.6019287,6.7937155,0.49940833,14.769939,11.6858015,11.983867,9.419146,-15.938724,9.437974,5.0337152,7.8970118,-8.257914,-21.822126,10.6728735,9.0562,9.548611,-17.185938,-17.744535,-0.730885,15.0825405,12.027521,-25.84348,-10.349589,10.217213,7.837152,13.502187,-22.50476,1.4615732,7.317033,6.3429832,-6.8415756,10.212025,-2.2496371,4.307321,8.4381275,5.2594414,7.097422,5.3834953,9.702384,9.085286,5.204342,-18.990866,4.860468,12.108661,16.225224,13.557224,9.983837,12.381949,12.450463,10.642867,-6.3560977,12.874438,-21.663548,-21.802639,-7.256046,8.233519,-17.67978,17.353249,-13.715273,8.596855,-13.100878,1.2828751,7.3186913,-21.659195,13.6336775,12.676801,-18.2191,-23.132536,-21.504774,1.9558547,10.254496,10.426664,-16.1676,4.665785,6.15479,-1.9899157,0.7112859,-12.912043,7.5263085,-18.86768,12.976295,3.8430767,-20.481606,7.4007545,9.453018,11.279802,-11.551523,-22.359734,-18.630743,-5.2226777,-18.73274,26.517075,13.236723,-12.201055,-2.0465398,11.674373,-6.975996,-3.845059,-26.822287,6.90853,8.169808,3.8542914,16.337736,-2.910836,-17.54114,6.1084647,5.635185,9.111886,3.5951657,11.255981,-18.912825,6.6557684,-3.0934665,-0.8757724,10.45408,1.3589487,8.843048,8.9410305,-15.468327,-30.011454,11.27187,6.3516345,0.8988597,-12.221236,8.880596,-16.187397,10.392752,6.566388,7.7989945,5.9029365,-13.579927,5.735851,18.052645,3.78337,11.714283,-27.855309,15.196036,-7.3475657,1.5002778,-13.18497,4.148667,-1.5952638,4.814568,2.1775467,2.243087,-18.27851,-17.503506,-23.62107,-5.847787,15.64798,6.11267,-4.364768,12.363551,-17.46483,-4.4219675,-22.251606,-32.446907,-17.129408,-17.40472,2.1456435,13.094271,-9.951072,-16.200098,7.281683,16.560787,7.111469,10.346918,-12.756104,-15.55201,-4.8258657,-7.996652,14.324861,9.322263,3.1021016,13.000317,9.911765,-9.378625,-25.537693,3.8301167,13.572447,10.590559,1.2547071,3.5023801,5.548608,10.8473625,3.3127222,1.4106792,-4.9812655,10.337988,10.90158,11.610464,14.744586,8.999837,9.148376,11.54443,-15.87733,-20.72378,8.999552,-3.6214693,6.090371,13.694331,7.00868,-21.702698,10.946219,18.207178,-8.13619,11.006586,6.302688,-0.9206811,10.97121,6.159168,1.6130013,-5.0814643,-23.372808,4.8645487,-1.5898746,13.345482,13.32675,-21.13614,-16.859613,8.84465,8.147097,12.624906,7.858023,-16.358885,6.397679,-0.7247687,-4.3963394,-17.582275,17.162323,-13.78221,11.967777,-6.817943,7.5001254,-22.752552,12.695569,-21.564455,-14.403104,2.1988254,12.546218,-22.42664,3.6742687,-6.918116,-3.6190467,-10.661541,9.406233,12.912198,11.07388,9.938466,-20.352184
id10384/vxBFGKGXSFA/00003.wav,-22.836992,-6.30978,14.083565,14.079174,0.08122857,-9.137454,-16.11902,-6.7958612,9.645897,5.673916,-19.136105,-19.303686,15.556357,9.546319,12.16158,11.751507,6.542788,10.396233,1.8737564,10.777285,10.520705,7.4940276,-3.574525,-17.358326,-19.682228,-2.1985116,-18.607983,5.820288,6.292802,14.329842,-0.82261723,10.174851,5.540533,-3.6748478,9.519107,-17.410742,8.42489,8.114685,-4.319374,-14.468495,9.803619,-6.884969,13.618237,11.946358,11.189474,-30.202686,-4.842122,3.1564717,-21.431679,24.40926,4.130406,14.627584,3.6201534,14.310012,-22.710442,-0.43825984,2.9382913,6.9971933,15.580235,2.6614835,6.252307,-2.7368727,-2.69569,10.659518,7.470582,11.668723,6.267167,-14.586695,-18.398575,-11.685418,5.814636,2.9887807,-2.7384918,5.2304716,15.777097,13.38744,0.0902062,6.0039263,-18.588705,-20.30824,-23.541605,-18.29209,-29.51254,-18.288141,-8.443254,-18.650383,-24.767437,10.171356,5.9894357,12.068501,7.830456,-23.961662,3.1023242,-23.483257,10.250538,-7.2290735,13.824831,11.974861,-7.6742406,-25.235506,4.5029364,-30.432615,-23.208334,10.191784,7.651493,-12.594321,8.125851,19.219744,11.652466,6.42074,-21.412327,15.208673,18.710325,6.6761,3.556274,12.120688,-20.57357,4.4992747,-17.448507,3.9450283,4.630164,-26.849516,7.8544755,16.90077,-15.262731,13.066947,-17.490412,11.064277,14.2532625,9.563105,6.915462,14.53283,4.063827,13.493504,8.579698,-24.719765,-28.941235,10.897399,-13.011666,-9.302868,6.895187,0.99074507,-1.3720356,6.378312,-17.272058,4.147903,1.7306985,-6.566947,16.254795,-17.425207,19.064108,-10.75527,-8.154203,9.820309,5.4328637,13.711014,7.7061625,-18.515709,-24.171286,10.00166,9.007839,5.0074854,5.2469893,-15.768308,10.712506,2.9936306,9.382424,8.078528,17.163416,10.068659,-7.8285036,-26.405382,18.152641,-16.731436,-7.7214627,1.2372448,-22.447382,7.687549,1.9901326,-22.980745,14.740643,-21.787825,11.820708,15.335132,-18.216976,-2.4630103,10.138234,7.179274,-25.859959,-18.047546,-1.834491,2.825168,-23.720152,10.618199,8.018907,5.6584153,14.521495,4.520137,10.907568,4.1957364,12.810874,14.145156,-15.158204,2.6827805,11.5089445,5.006476,15.651081,7.8218427,10.188512,-5.264989,0.38446173,-18.09212,-19.163467,10.321454,-16.111547,11.441978,17.055244,-23.734478,10.933899,9.871582,-18.178318,10.868361,-24.992628,-8.484415,10.360347,16.238264,12.524872,16.873793,13.995618,9.332027,-2.8134222,7.103985,3.3400788,-11.989846,3.7686758,-3.541464,13.332771,6.09457,-0.24243036,15.918984,-14.142921,5.85589,-20.877232,6.064172,-21.584457,10.63769,13.066152,4.870644,2.0626435,6.05413,7.4596586,4.220916,2.0388496,-12.537868,0.09231354,11.7384615,3.7382522,11.609489,-18.352697,15.078207,9.423001,-21.03933,7.9310913,9.497071,0.34627822,10.77084,13.804712,10.18926,12.713405,-16.806107,10.07396,2.3263988,9.476601,-10.306246,-22.519583,12.537487,14.883815,13.928355,-14.458723,-18.289534,-0.9278949,14.764337,10.461905,-24.001823,-9.34133,11.667479,11.647143,11.108661,-20.3163,1.14371,6.356091,5.6690955,-7.9087157,11.181515,-4.1127295,8.585088,15.484947,11.378529,8.126585,8.256902,10.6666565,15.942155,5.0847855,-19.523956,3.9768791,14.067307,17.57456,12.120263,11.046317,10.890776,12.607986,10.172815,-7.217739,11.275423,-20.886417,-14.954872,-6.688212,4.5132866,-13.717227,17.448074,-15.537349,8.627511,-12.3335905,2.5283213,13.067146,-19.864864,16.87496,17.587313,-17.142994,-25.470564,-22.03411,5.754003,11.74515,9.86359,-19.586565,11.124669,8.500526,-3.1454275,7.2522273,-11.687857,11.292463,-16.23892,12.828967,1.2825512,-21.87276,3.5716593,12.418757,11.240791,-8.696344,-24.042286,-17.04753,-5.5805387,-19.480068,29.97596,13.685411,-11.991013,-2.0920753,14.263823,-8.925274,-10.457288,-24.485147,5.35274,8.973719,3.999464,13.114005,-6.9146214,-15.428413,4.6257925,10.32165,11.143216,2.9747572,7.977505,-19.36758,9.759256,-3.3191655,-0.7753847,9.546644,2.3513815,14.619818,9.50109,-18.409298,-27.32798,5.746666,0.64556134,4.7678237,-12.668336,4.4287505,-15.604058,8.501583,6.5376625,11.273621,6.4877086,-13.727469,2.1992595,20.580685,3.3388684,5.970931,-21.515274,16.390034,-0.61690265,0.026644245,-13.680796,7.183703,0.08108005,6.6121893,1.7314705,1.770785,-22.300892,-19.572971,-22.124464,-3.4418945,11.311012,9.230148,-4.062889,10.838546,-19.206755,0.101327844,-26.985022,-30.662428,-15.815588,-14.37941,-0.16720445,7.1766224,-10.369348,-14.771567,12.219826,17.357727,13.538548,10.88315,-12.536314,-16.66415,-4.141863,-7.3278294,12.860454,9.851227,1.5239855,12.733499,5.0535927,-9.996124,-24.958908,9.725157,14.486532,4.1562886,1.082752,6.1449356,11.675745,14.065294,2.4886713,0.6904966,-4.128625,7.24706,15.1577215,8.215731,17.728167,4.5919023,5.5205135,7.8659325,-16.388512,-21.901213,14.21867,-3.1553097,9.53629,17.341719,6.3339467,-17.675125,14.669662,13.72771,-4.984523,14.130306,4.3525386,-0.76011366,11.215595,10.040705,1.3729968,-3.052033,-22.211756,0.89229727,-1.5982361,13.028676,19.639786,-18.904968,-15.777977,8.895363,6.922119,8.574506,7.680918,-16.98794,10.472738,-3.250171,-3.5787735,-15.5771265,14.34049,-8.248074,10.817171,-14.533285,9.4381,-18.84961,12.744222,-17.305037,-14.6958065,1.9808918,14.036883,-21.491667,8.9505005,-6.4049416,-3.6102476,-12.306474,9.815214,13.991553,12.360597,11.410769,-14.455922
id10384/vxBFGKGXSFA/00002.wav,-27.514853,-8.066534,11.684694,13.514354,-1.7882773,-13.510861,-15.560959,-10.174082,16.695267,5.966846,-18.547976,-14.92265,13.660563,7.8114934,6.796432,15.956282,8.026065,11.953966,3.3068295,10.016141,11.253544,10.393001,-4.229626,-20.215496,-18.679504,-2.7555585,-22.503902,10.248464,9.864662,12.480167,-0.7461897,7.9077373,2.876778,0.19314152,3.8249106,-15.834293,11.449168,5.997947,-7.5108624,-15.423332,0.8750835,-2.0872095,16.23947,15.050938,11.821526,-27.399448,-5.6381645,3.7500684,-23.595467,22.595673,4.2393956,12.225083,2.2611158,10.818861,-19.465242,0.9291332,4.1428847,5.1717052,7.1426353,3.8768094,12.381408,-2.9117305,-3.2112663,7.8467493,3.8739986,9.843464,3.3867056,-16.771275,-18.46545,-9.445526,9.524344,4.009113,0.67008793,5.968261,11.610899,9.512886,2.6283226,1.3505064,-16.051746,-20.816347,-21.653866,-16.548075,-24.750399,-19.4004,-9.234413,-23.383318,-23.186853,11.171412,2.8151302,8.486459,7.717127,-22.673267,4.177492,-19.838345,13.9292755,1.2958293,14.787496,14.874253,5.13629,-22.943747,6.331267,-27.36138,-27.671112,8.48935,5.5578127,-4.402068,6.9474273,22.246752,6.9967113,9.244538,-21.868454,11.760534,19.90621,5.408864,6.2590647,12.218765,-22.01543,-2.7717407,-13.18528,-0.124857366,7.7674603,-28.85649,7.750393,9.861645,-16.880022,15.022751,-17.07446,10.996748,13.969744,7.075886,8.051943,15.12029,4.706376,19.361483,9.791103,-19.866262,-24.604649,12.58522,-12.505053,-5.9757977,11.892523,0.288523,0.72606546,7.237689,-19.566135,7.6383452,-0.28512082,-6.366707,15.621223,-15.573296,18.992556,-13.042143,-16.944872,12.977091,0.15186621,13.509504,8.813152,-21.547726,-20.820126,11.247608,9.234723,3.4875247,8.677838,-13.825403,8.434894,3.4754949,12.150403,6.434406,12.850449,5.7244563,-6.507847,-26.118856,20.255709,-16.886623,-3.4055097,6.237733,-18.367365,7.1813,5.796345,-18.353655,13.759247,-22.770618,8.160066,14.080228,-10.444145,-2.663473,9.077679,5.4557877,-23.1776,-21.86161,-3.5739403,7.3974495,-26.022385,9.423271,14.794269,4.1612096,15.11896,6.35875,14.961995,0.32190713,5.389167,9.6593685,-14.255057,3.4510517,5.311329,4.7783284,14.780799,10.874779,1.7289455,-0.7140358,0.93650144,-24.110134,-21.094645,11.358911,-19.753986,11.910851,13.696312,-24.319313,13.59708,6.1120043,-15.695617,8.245051,-25.226482,-3.5182414,8.226569,12.618351,14.872645,21.97364,15.879973,9.4524355,-4.3708487,9.434793,6.0183444,-10.305153,1.4555833,0.53747874,13.388445,5.514695,-0.6054089,11.03438,-17.265759,5.166924,-18.483095,12.265198,-16.586739,11.275996,12.719257,4.508368,-1.9531019,10.44481,6.317968,7.1088862,2.2757785,-18.738338,0.98788667,11.3376045,5.7717724,12.229372,-17.626352,17.112604,8.890376,-22.83019,10.318681,12.660034,0.36241576,11.718756,15.312772,13.559947,13.503187,-18.368404,10.817616,-0.3895712,4.468021,-11.112066,-20.681536,12.537547,14.29099,14.152428,-17.352228,-14.349633,0.6735646,14.00743,10.170471,-26.722261,-7.7290926,5.3031793,4.36584,12.605245,-23.81696,1.1217873,8.039624,7.8235517,-5.1037993,13.345464,-10.444604,3.2712162,11.144842,8.151187,7.7749295,7.0289583,8.967001,11.737277,5.6106434,-21.527294,4.375608,11.412527,16.1892,14.910089,9.623228,13.863763,8.958678,10.289115,-3.967397,11.322603,-20.998169,-15.369899,-6.5375905,8.835553,-19.378033,24.546194,-11.638603,12.751058,-13.453341,1.7245862,10.442856,-23.013836,17.192783,16.077238,-20.979229,-22.460333,-19.351196,2.4091256,7.7276316,6.0049925,-16.585207,10.163203,8.943675,-8.200077,2.8167832,-10.639669,7.803326,-19.028389,12.953474,1.5842906,-21.269773,4.6215987,8.305291,6.9626436,-14.790695,-23.069294,-16.060389,-10.220023,-17.77038,27.90871,11.413158,-11.964656,-1.9901825,13.085403,-4.0103283,-8.14358,-28.952961,6.210966,5.28305,5.358488,13.052315,-2.239637,-14.986634,5.642041,4.3825636,15.645353,3.4686308,12.778472,-17.492298,10.76984,-2.7220843,-0.87905186,5.163993,1.6453087,6.638437,9.992814,-21.081354,-26.418915,9.768022,1.5696269,4.972259,-13.798112,7.774568,-15.239331,7.133865,4.607336,10.014629,-1.010822,-15.0668,2.6920583,19.159407,3.4884694,12.672509,-23.423677,13.21977,-2.7514331,1.7254322,-10.730397,5.993605,3.6747966,5.9508586,1.2269499,3.205249,-18.489304,-20.170063,-22.394865,-9.475243,13.991013,8.26268,-4.4303503,13.51127,-20.102478,-7.824381,-22.141068,-34.720566,-17.828005,-13.233404,5.3488045,10.5722065,-9.256993,-14.247213,9.537504,19.832357,12.83496,8.749318,-12.731397,-16.886232,-5.508043,-8.28661,12.18944,12.455041,1.9245337,10.478552,8.834977,-7.853768,-22.523483,2.7762592,12.320422,5.819686,1.1905531,-0.52279675,9.409302,15.998022,3.2751782,2.1708307,-4.260933,9.447845,13.754881,6.912285,17.26419,6.3235154,13.6349125,8.805702,-18.44459,-20.445383,9.862475,-4.843724,6.924485,13.222218,2.9491594,-22.488266,7.292324,17.327436,-8.328651,7.4007874,5.768776,-0.88865966,7.443846,6.659777,1.77544,-6.921718,-21.51962,0.9914628,-1.4930332,11.258738,12.316058,-17.266466,-15.760655,13.701157,3.921873,13.511502,4.402659,-16.04319,7.70866,-3.861667,-4.2751226,-17.550089,16.022902,-10.59625,9.716805,-6.2491417,13.163381,-26.639555,12.911124,-27.250511,-17.316185,1.7898824,13.771659,-22.31323,6.376279,-8.824381,-4.266603,-16.903212,10.476587,11.990212,11.911133,8.29213,-21.306654
id10384/qXG2i6-PxZY/00009.wav,-30.276056,-8.893484,4.9003286,9.426172,0.879937,-13.983901,-20.608555,-12.1785555,11.385485,6.404656,-16.575426,-18.941938,17.564116,9.878772,9.9451275,12.778137,3.4943948,11.814539,3.2965374,5.121171,12.034335,12.39752,-4.167273,-17.887926,-14.861024,-2.1029315,-19.944416,6.0794864,9.847177,12.364835,-0.8735021,14.775953,5.027428,6.8665047,4.420286,-25.1478,6.2910147,14.562466,-12.889142,-12.109662,10.913479,-8.685741,16.745684,9.874126,4.1108603,-30.850227,-5.0920677,3.8313901,-28.797867,23.321053,2.207209,9.588686,7.274562,12.467434,-26.984232,-0.28111088,0.26945138,4.6388936,10.201584,3.9653933,11.644425,-2.942035,-4.2603574,13.701509,3.6036565,6.214302,5.524581,-15.195627,-16.373024,-14.669973,8.808708,3.8262253,10.441763,5.521682,12.238276,10.396063,3.3285508,5.639219,-13.523212,-19.783815,-21.598698,-15.88378,-26.236952,-20.65829,-9.402949,-22.940245,-23.985764,13.749897,9.217375,14.572568,8.559962,-23.958813,4.142983,-16.641998,12.925847,-3.1508288,6.4333606,12.281223,-1.1685745,-27.17623,3.661788,-28.487915,-29.82218,11.840239,13.306027,-9.420191,8.361727,19.520618,6.75509,9.324916,-20.280842,6.871739,21.06628,4.647128,7.7763786,15.475797,-24.27461,1.0956173,-11.304822,4.4761147,5.951549,-28.20807,12.810605,15.843296,-16.798277,10.611837,-18.720638,8.414315,13.294346,5.744909,3.4311306,13.703315,11.429082,12.868306,1.8346097,-15.991,-29.362398,10.378128,-19.613403,-9.478013,9.574241,0.87496185,-7.819238,13.680794,-16.69998,4.327003,3.6830502,-10.371362,10.521605,-21.93078,18.349892,-10.096992,-21.319185,12.257471,4.0144973,10.860223,15.933325,-17.18119,-26.798138,7.1937766,5.8344135,4.016841,5.89579,-11.041818,10.045603,2.9612193,11.391883,5.948209,10.556559,12.779722,-11.827241,-28.034994,16.643335,-15.050507,-11.690581,-0.017383628,-22.129503,4.6767116,10.888902,-28.013933,9.309051,-22.864975,12.059497,-0.86691505,-19.422058,-2.8604765,8.973215,10.197333,-28.013573,-17.68985,1.5025619,6.3909106,-22.524515,12.858173,7.4581413,6.745647,8.972552,7.443687,14.424759,1.7463475,11.021607,9.995765,-13.616017,2.456483,8.685256,5.5191646,16.233488,6.299822,13.508547,-9.034066,0.70109314,-22.540289,-16.33961,18.228207,-21.1837,11.945328,10.916522,-16.130785,11.161847,10.372079,-16.45072,10.485615,-22.903208,-4.335516,10.739681,19.095638,13.574968,17.588358,9.34924,10.753355,-3.585348,10.031577,8.147474,-14.355139,8.3668995,-8.126362,12.902305,11.551859,-0.080648825,18.360764,-20.625292,6.5608764,-24.511684,7.820622,-16.29974,8.886011,9.898978,4.820752,11.171204,3.7872608,9.255079,0.92397124,2.3199484,-22.430765,3.9846537,12.280775,7.8276763,15.040243,-24.505438,9.245945,13.041782,-21.67489,8.027482,7.434465,0.30722103,1.8022577,13.055467,10.718632,-0.49606007,-17.227308,9.800133,-8.473771,8.417727,-11.774533,-19.903162,10.134946,14.191466,9.755936,-17.367476,-19.025652,4.4827485,8.191093,14.097141,-24.053318,-10.372619,15.163555,8.613827,19.432425,-22.363083,1.2112997,6.535639,5.4940133,-7.0940776,10.994529,-1.9196113,7.7893233,12.780762,3.5519829,4.2550364,7.8785925,13.297521,11.798015,5.904637,-27.715195,7.030435,10.167867,12.988949,13.207717,10.363879,12.709659,16.32104,5.9841676,-3.2300828,14.664984,-21.793373,-18.92201,-7.252816,4.41101,-17.441086,18.35014,-9.710874,16.969032,-16.187468,3.100195,12.209223,-20.438744,16.28072,15.522945,-21.356403,-21.33289,-19.59968,2.5514884,6.5736046,8.633686,-17.708323,4.437494,6.9076858,-6.193163,3.6420033,-9.009625,7.5590234,-14.801334,12.023999,3.2566788,-23.159372,5.52518,12.212424,15.391733,-7.5597734,-25.048613,-15.319546,-10.706135,-20.754438,30.200716,10.517176,-12.758806,-2.2827137,11.145994,-8.700264,-6.67885,-28.797693,4.329668,8.374741,3.2691267,12.021083,0.6359187,-13.893136,1.5325992,11.587718,11.783598,3.534307,13.581153,-18.59194,7.625405,-3.7569442,-0.8002766,8.229598,2.669226,18.320324,11.972827,-15.983485,-28.734945,8.698851,1.9697067,2.1179004,-12.010289,8.178978,-22.442432,12.559727,5.8508453,6.413884,2.6820323,-11.565824,8.160666,17.16779,3.5628083,3.8861566,-26.898754,12.969051,-3.1592987,6.988217,-16.423195,5.762127,-0.796677,9.847759,3.3896303,0.40209368,-21.142323,-19.861855,-22.949492,-3.3604293,12.952747,12.237049,-4.2576056,9.8535795,-20.54021,-2.989271,-21.108818,-31.801647,-13.97928,-18.732405,1.9455365,13.884356,-10.312987,-13.26437,7.2851095,17.875696,10.272822,9.09418,-12.035023,-20.191338,-4.6428556,-7.9993577,8.432796,3.5832648,2.506838,12.170862,5.048553,-12.313864,-19.953852,7.182057,12.138285,5.534943,0.7695702,2.3121655,10.665445,11.257312,3.1433656,7.6864915,-4.4211035,8.594616,10.079757,9.207956,13.697419,7.6231146,7.7760663,8.488304,-11.374215,-16.085478,11.111602,-4.1082435,6.9515834,12.018449,2.534628,-18.63357,12.824089,14.287343,-9.548745,9.161341,1.8517635,-0.93222404,9.587787,8.102237,1.6327323,7.7677336,-20.524221,5.6816974,-1.7103184,13.17326,13.4972515,-17.560827,-13.363099,15.256455,-0.24214026,18.346981,10.389902,-18.063372,11.053546,-1.7852105,-4.477013,-19.582201,14.8182,-11.247581,11.977026,-9.823973,3.503778,-21.12498,-4.873639,-17.797565,-10.097537,2.6280859,12.463752,-23.080898,4.824832,0.01650843,-3.8031504,-12.53548,7.6605597,13.690246,15.102813,12.001803,-18.039204
id10384/qXG2i6-PxZY/00008.wav,-28.783117,-6.9170365,6.900141,13.360309,1.1398021,-13.156104,-24.701694,-14.016566,11.010812,6.6935506,-16.660353,-19.811666,12.89701,8.27134,9.672458,12.893289,3.7497633,9.105549,3.715841,6.523261,12.722873,16.64066,-4.4467554,-14.606924,-15.985764,-2.3692315,-16.50121,8.060035,9.717114,11.818765,-0.899025,17.812819,1.6763811,6.036102,5.4994,-23.659094,7.782836,17.870165,-11.759407,-15.038756,13.344057,-7.9806,16.988773,11.342857,5.9874177,-31.661541,-5.391773,3.9034457,-26.831856,20.806665,0.81785786,16.455791,4.1493325,8.77825,-27.698605,-1.8089617,-0.3375634,4.5613756,12.012105,0.9699524,13.14815,-3.1119583,-4.806859,16.310087,1.8033346,7.918734,5.4194417,-12.525818,-20.696615,-14.539319,10.371229,4.655677,10.828432,5.432046,15.975673,7.993255,2.3776631,8.305078,-17.19281,-19.41565,-26.74611,-20.664576,-25.529444,-19.484835,-10.115727,-17.496655,-23.713266,12.287585,9.9749,13.853899,8.69103,-22.752178,4.67757,-16.454344,12.397645,0.68379,4.4187403,8.021006,1.8301598,-28.775259,8.896202,-28.13925,-29.650288,10.413783,10.759464,-9.884781,11.064139,16.59711,12.580778,10.664052,-22.361052,0.58971477,20.549736,5.236244,12.649362,15.7736225,-19.565004,-1.351368,-14.3647995,5.0688963,6.768472,-27.391373,13.437133,13.562113,-19.678854,13.410913,-20.80224,7.3757486,12.683954,7.6617675,4.429852,10.894701,12.530086,11.933978,5.989467,-15.709448,-28.379004,12.7771,-21.294847,-7.76313,12.608974,0.62203753,-7.7489386,8.066887,-18.398588,6.1963453,1.4141797,-8.951387,12.368076,-23.312393,15.313584,-8.548508,-26.987799,12.034147,-1.0153086,6.983362,16.48759,-19.90763,-29.685846,5.5579925,7.928956,2.3734837,9.254035,-16.168676,14.786468,3.2964494,7.677189,8.857779,13.515695,11.93171,-14.28353,-29.479603,17.696074,-17.839214,-6.667482,0.845113,-24.656668,4.4339957,12.168241,-27.480452,9.562493,-23.80379,13.697753,-13.198563,-17.212234,-3.218112,10.4862385,11.119058,-24.540379,-14.846017,3.3524342,6.726021,-25.860388,18.866648,8.90272,6.8060694,11.196197,6.4486823,11.712599,-2.1092482,12.167502,9.121196,-14.373202,2.3299747,-0.29385117,5.6540365,15.686364,8.829148,12.204989,-3.0624287,0.96248627,-20.345112,-14.281047,13.966395,-24.230843,13.747293,7.4270473,-17.641972,6.525997,9.588234,-13.348794,9.775765,-23.276815,-4.4096184,11.836794,16.8654,10.366394,19.444958,11.5417795,8.792774,-3.411743,5.996344,10.435732,-11.274847,10.11096,-3.9060094,16.512146,11.979637,-0.2563854,16.430223,-24.425362,7.0703874,-22.684103,9.861771,-15.594002,10.839982,11.198619,0.53258324,13.81968,3.8958592,8.918092,1.7368716,2.7095106,-15.971286,3.0461347,11.97779,11.350475,13.217227,-26.478022,11.015925,12.597849,-20.930038,6.304558,4.896993,0.28367946,5.3433375,18.401934,8.879246,1.0979933,-19.223267,9.386725,-6.1485415,6.6910925,-11.611725,-18.693117,10.760542,13.553155,11.140975,-22.078033,-20.806181,5.1362534,7.293634,14.494604,-21.255344,-9.040054,11.494007,5.3893876,23.404757,-21.670765,1.2592406,7.7852554,6.669302,-7.731145,6.9493136,-5.2495546,9.260184,14.2034645,0.5888744,4.5276995,5.429867,12.2592,14.374506,6.599884,-24.64129,7.3742476,16.726141,15.780893,14.380951,9.649174,13.20505,13.581041,6.847389,0.5561082,11.437439,-23.24107,-16.221838,-7.8122773,4.655908,-20.324299,19.972488,-11.319729,17.29256,-15.32791,3.3961763,10.5546055,-19.207893,12.217177,12.836364,-18.66353,-24.01186,-20.34323,-3.395505,2.906482,9.044359,-19.800821,6.2407317,10.632986,-7.987732,4.364242,-11.644432,6.2757325,-16.805426,10.124694,4.0292706,-22.172752,7.1786885,13.104153,12.843603,-6.032243,-25.613873,-16.038267,-5.3139024,-22.771235,29.253437,16.838432,-13.377022,-2.2565916,12.713662,-8.224417,-5.09282,-32.412254,5.624931,5.726549,5.1903243,11.921952,-1.0040958,-12.591066,0.7769024,12.277539,13.474498,3.5253124,12.301078,-23.705482,3.02515,-4.208621,-0.799395,14.412413,3.4081807,21.196339,8.296584,-18.994715,-29.221195,10.089487,5.3766026,4.6639037,-11.581844,10.789395,-21.635654,14.621925,8.337626,8.170213,2.8933134,-10.800848,11.463536,13.320629,6.7810235,0.7139352,-24.90673,13.255421,-3.9933805,10.558747,-15.262245,6.156405,-1.9402479,0.79575425,3.2501974,0.78825915,-18.128002,-19.461264,-19.88101,-4.5525312,13.301979,15.418479,-4.499671,10.133554,-21.910803,-9.698409,-21.536427,-39.35093,-15.84897,-14.0096035,-1.9301662,17.894136,-10.754808,-16.652275,9.262554,19.681252,8.139429,9.228153,-12.862455,-25.254255,-5.2806025,-8.619248,12.16101,4.486931,2.6750262,12.788045,5.1616993,-14.401862,-18.636856,9.880074,15.316364,5.3808284,0.5324991,5.0189495,10.8612995,8.20313,3.2250316,5.534078,-4.570279,12.773559,12.322475,3.568219,12.806777,5.966228,7.698518,12.15111,-10.13095,-11.788323,13.134907,-4.2505,4.240247,8.23607,4.1857443,-20.3614,12.38922,15.946796,-11.872571,6.6697674,4.3620863,-0.852742,7.063535,9.3707075,1.6918414,11.339453,-21.740309,6.5586567,-1.6840374,12.368636,12.366864,-15.621149,-14.664302,14.4869375,-3.4223118,19.853596,13.037203,-16.421558,13.184689,-4.1420455,-4.7374983,-19.808374,11.098886,-11.546648,10.794586,-3.3466642,7.3483734,-17.149244,-11.539959,-20.087666,-10.299056,2.6854782,12.845604,-22.602507,9.607678,-0.59376323,-3.9257774,-16.241556,9.065683,14.451568,12.179244,8.453886,-17.219902
id10384/qXG2i6-PxZY/00006.wav,-28.62647,-7.015847,7.898699,11.430228,4.1426864,-9.991265,-22.577354,-12.135526,16.269064,5.903893,-19.676874,-17.975693,13.890941,10.065551,7.2684855,15.561855,3.6382825,9.576461,2.6857023,7.1672516,11.689373,10.405072,-3.9951398,-14.947393,-18.053654,-2.3678305,-17.30708,8.638417,9.557097,13.646943,-0.8271862,18.817966,5.3278913,6.5812397,6.2938614,-24.103867,3.1090884,15.580822,-13.4335785,-12.615842,9.837351,-6.5476213,11.960026,10.953905,7.808059,-31.242115,-4.8855634,3.4195895,-27.579437,23.083477,3.1383655,15.690937,4.949945,12.208798,-25.547915,-0.2988956,1.9722918,6.4479756,8.618438,7.4618325,7.728855,-2.866254,-4.368855,12.714849,1.9275208,9.588982,6.04836,-10.771933,-18.811357,-15.183325,13.3019285,3.6736138,4.895362,5.863036,10.93117,11.080762,-0.8206796,4.0786858,-17.495668,-18.912748,-17.115837,-21.419323,-24.542833,-17.085411,-8.843288,-19.649977,-24.68908,15.736667,10.065215,15.156546,8.379733,-21.241938,3.6681926,-17.980772,13.187095,-9.028778,5.582984,11.29464,-2.4730828,-23.89268,6.9859557,-28.917637,-26.343012,13.5232935,14.790461,-10.036836,11.941,19.6652,8.679851,8.922131,-18.150723,10.362582,18.508165,5.4356537,11.881432,12.293831,-21.404255,-0.38840124,-14.912944,0.61007255,8.541464,-24.834776,15.227378,16.425507,-16.311352,10.492605,-18.492298,7.9341288,10.9666605,10.71849,0.17708378,11.686054,9.765682,18.504953,7.1297903,-14.214833,-28.664986,12.4502735,-20.016886,-17.88154,9.759065,1.0485201,-13.758917,9.809038,-17.073256,7.1403165,8.044099,-6.2126765,11.934626,-22.080563,17.410477,-13.046261,-22.903566,13.624532,5.394996,9.471978,16.016636,-19.939957,-23.72423,8.815339,8.004649,3.2257981,5.247539,-14.074716,10.267785,2.8217044,9.748397,6.2465973,13.928688,13.6976185,-9.892145,-30.247314,13.43049,-15.670604,-16.547487,0.2354278,-20.7516,1.2137804,11.200949,-24.978998,11.464779,-24.54749,12.616527,-3.272862,-19.313507,-2.8374715,7.020983,13.815004,-22.816154,-15.811265,-0.45402494,7.299863,-25.206638,12.216945,8.690326,8.664107,8.038845,6.0007706,15.030585,-3.1521423,10.179515,11.439004,-14.12312,1.8380147,8.204343,5.932198,19.276503,6.7784944,12.102801,-8.057633,0.5787597,-19.376312,-15.707966,13.374962,-21.493484,11.72777,11.605046,-16.73851,9.057751,11.572586,-14.347035,8.913421,-24.995539,-12.128582,13.859994,16.359396,11.791779,17.638094,10.366246,11.438564,-3.713695,10.469044,8.758008,-13.980904,13.469725,-7.087101,12.507985,11.877922,0.24256054,14.687276,-21.790491,7.0601807,-19.23802,5.7040334,-19.425098,9.172918,9.8680525,1.8233824,12.045522,4.213118,8.73845,6.3381896,2.3663669,-18.768381,4.6795683,10.302473,5.2373857,11.407194,-23.877628,12.164349,14.133764,-22.175678,10.795124,3.4034395,0.36996457,3.8190494,14.005468,9.322589,0.3477872,-16.6403,10.6843605,-9.9386425,7.1344004,-12.957533,-21.625296,8.510805,14.227717,9.890896,-22.195646,-22.230566,3.4153645,12.106959,14.494205,-22.110249,-12.742404,10.756554,4.6473184,18.260359,-19.459667,1.3538135,7.607928,6.6955113,-7.653615,15.397983,-2.5691962,7.782709,11.018295,9.003049,0.23378192,8.097075,14.489048,11.681235,5.544219,-25.017311,5.4553294,7.4465437,10.060762,13.734352,12.18354,12.754148,12.74916,6.586446,-8.042961,15.783407,-21.476768,-20.387072,-6.6413736,7.1042366,-19.45808,18.445175,-12.052698,13.830178,-13.955318,2.895414,12.915429,-20.528706,14.574979,12.0115595,-20.996578,-22.484331,-21.997993,3.2636466,6.946719,6.761629,-19.4972,7.6343203,8.209727,-4.0344133,5.391266,-8.792477,11.872352,-16.57729,11.663844,2.7495182,-21.884893,10.453066,11.6791935,11.693565,-9.311136,-26.443428,-18.317677,-11.724523,-20.631124,27.156715,11.437595,-12.72031,-2.3101265,13.018729,-13.686936,-4.999916,-26.32897,4.488197,7.1406994,2.5377884,13.128966,-2.095183,-16.123262,4.311451,12.090299,14.13018,3.4300008,11.136687,-20.252602,5.203276,-4.117593,-0.6547113,10.9356575,3.034268,20.239624,12.167228,-15.869293,-26.292809,5.966155,7.7645984,5.7969413,-15.1328,15.160906,-23.757072,12.349022,11.048859,5.1396775,5.2013144,-9.639873,4.943284,19.675152,2.8975968,3.325891,-24.517902,11.822007,-1.8474538,5.8473296,-12.061632,2.7438908,-1.6336535,6.260178,3.4804666,0.4092022,-18.452406,-20.299643,-23.27267,-0.5278664,12.581501,11.76578,-4.184255,9.392962,-20.526587,2.2635212,-20.140415,-32.55232,-13.806837,-17.234402,4.051022,14.247749,-12.892149,-14.228793,6.1388025,20.350494,9.547916,8.261767,-10.263638,-20.779974,-4.371708,-7.440998,10.510738,4.6382647,3.69528,13.389194,5.798165,-13.58292,-22.101921,10.914179,9.651219,4.8024645,0.761664,3.3293207,7.873515,12.472789,2.6891282,4.211342,-4.5978956,12.307316,10.197742,9.852936,11.32105,5.623393,6.122475,10.860159,-14.152484,-16.303883,9.190547,-3.4405324,6.843619,12.80372,5.494933,-21.719858,11.66646,12.422708,-10.92367,10.517198,3.6108067,-0.79404944,12.210542,7.8176928,1.5850532,4.9146934,-20.274946,1.9805523,-1.6973021,10.407582,11.403006,-18.270914,-11.919122,12.313283,3.2346516,12.455135,13.182472,-14.075063,12.161838,-4.678685,-3.8956935,-14.351121,13.627248,-12.09504,12.934706,-8.288192,3.6425495,-23.81692,-2.3429778,-20.494778,-12.266574,2.632297,13.081523,-21.699085,4.1650667,-4.364576,-3.300521,-12.949624,8.810141,16.075722,14.863789,12.568689,-16.024885
id10384/qXG2i6-PxZY/00012.wav,-30.257034,-10.9517765,1.6224382,9.745475,0.19288953,-12.066962,-25.384624,-12.644938,15.767094,5.7892585,-20.097973,-19.143118,12.204565,12.361782,11.306787,16.879448,6.9137955,7.6257257,2.3037145,7.9437838,11.045546,12.644504,-3.8178751,-14.528436,-17.382904,-2.7878764,-16.81089,5.749098,9.570518,12.190547,-0.9171356,17.060844,9.028222,4.5473404,9.394976,-23.117523,5.5388374,14.995777,-13.670457,-13.27826,10.034716,-8.988873,17.477211,9.234964,6.8499284,-29.607376,-5.0398498,3.4792528,-28.215866,20.9686,1.5865194,11.056675,7.359827,11.597191,-27.101406,-3.0285172,4.9351583,4.23936,11.909439,4.7491508,13.718783,-2.8263934,-4.293824,7.499758,5.5866485,9.787049,7.235696,-13.666437,-18.76761,-15.512807,10.260164,3.5303457,11.831696,5.681853,11.821272,10.756603,2.3206444,3.8959131,-17.068336,-20.281763,-22.952147,-17.039171,-23.34858,-20.06185,-9.105139,-19.630644,-19.029835,12.812556,8.204089,17.101257,8.816432,-22.498432,4.255171,-20.69393,14.201989,-3.4412498,8.205613,8.570526,-5.930055,-20.543747,7.905844,-30.416063,-32.69592,12.640049,10.086919,-9.263174,12.364413,19.674318,6.2771554,6.722697,-23.130678,8.163247,19.923971,3.7379415,12.091614,13.809694,-22.125357,2.126533,-14.610194,1.9349648,6.9966674,-28.39276,14.28019,12.656641,-16.990715,6.7314467,-21.540071,6.771716,11.753068,9.308225,-1.3784094,14.093411,12.367853,14.680984,6.909363,-16.371622,-25.361261,10.011617,-19.767431,-10.137098,8.4830475,1.0654886,-13.086588,9.224505,-21.068916,7.1083007,9.5827,-10.9599905,13.079693,-24.10616,14.950946,-11.704905,-24.348783,11.819702,8.662202,6.698922,14.712872,-20.033987,-23.943039,8.505075,8.26975,3.1873474,6.4998755,-12.99961,8.524517,2.8235097,11.418765,7.430807,13.922737,9.307306,-8.488651,-25.73789,14.455241,-16.223011,-11.090405,0.85585517,-22.057247,1.5743997,13.958271,-23.169546,10.6696205,-22.786568,8.237188,-4.1339784,-19.134716,-2.9686387,10.545696,10.47464,-23.434137,-15.708896,2.9277885,12.352686,-22.503529,11.165583,5.838563,8.009536,8.552859,7.866581,12.268428,-1.9168833,15.320693,8.134979,-15.209504,2.7316687,9.421126,5.5768614,17.021343,7.000159,11.088632,-4.99801,0.7894114,-20.89958,-16.168106,16.513706,-19.503567,10.228693,10.244636,-17.017754,7.848006,10.641234,-15.806096,4.861847,-21.241404,-11.202286,15.216185,13.121463,10.890589,18.736801,8.177817,9.502592,0.18862134,10.248493,9.582161,-12.818848,10.70097,-6.636069,16.664341,10.929201,0.22711086,16.312948,-22.518639,6.999212,-17.98181,6.873758,-17.380367,11.047439,10.9044895,4.808965,13.287198,3.8719592,9.796508,2.4482129,2.45099,-20.405304,2.2572644,9.966284,5.8501697,13.024791,-27.092058,10.472534,14.789973,-21.937853,15.376156,4.915675,0.17705432,3.991647,13.175215,8.509072,0.4392045,-17.341566,7.621066,-8.182469,8.414455,-13.885639,-18.371275,7.8725,15.7683325,6.076351,-22.194458,-26.20355,0.73052746,13.090224,13.964038,-23.733799,-14.006551,11.087507,2.4130332,19.497854,-22.784927,1.017604,7.77104,7.5211997,-5.1509304,12.638293,-2.099414,9.485675,9.250861,5.845081,0.8016742,6.449621,14.415512,18.478966,6.058811,-24.716337,8.050433,13.580342,10.784143,18.926966,10.932226,14.599066,13.110976,2.2426064,-3.7566319,13.622103,-25.237782,-18.568668,-6.7447658,6.6339107,-20.24467,16.730413,-13.647568,13.351385,-15.09822,3.863739,14.29855,-21.936916,14.242528,13.9527645,-19.75266,-27.262012,-25.706402,1.1861936,7.9270945,9.148996,-17.104515,7.544203,13.223774,-5.487006,3.6178334,-10.360046,8.532185,-14.17956,14.241783,1.9521022,-21.375555,8.913232,14.74672,11.095465,-11.647387,-24.97728,-13.742175,-11.970453,-24.056278,30.04967,8.974409,-13.313499,-2.1352465,13.7996025,-15.198917,-5.0417175,-29.808825,4.954258,5.943269,6.841563,18.588848,0.25718123,-14.468766,3.561776,11.195899,10.621467,3.2422733,10.72032,-15.9764,7.260668,-4.15543,-0.66162795,7.831116,2.9243681,16.44398,11.814064,-17.51437,-31.360184,5.5934772,6.758363,5.5822964,-15.1221895,10.84103,-25.33636,10.515693,7.567376,9.993765,6.3573813,-10.76753,4.667715,14.216907,3.6075215,1.8646101,-26.172644,14.288816,-0.4500212,5.8668447,-13.260134,1.7613645,-2.0050793,4.1610684,3.3462424,1.263454,-20.190968,-18.582134,-17.59472,-3.4913342,12.2589035,11.074338,-3.9530783,8.694839,-24.305304,3.5409827,-21.56343,-33.726326,-10.755892,-16.85159,0.6058976,12.800375,-13.054567,-16.647528,8.887084,16.619667,5.377693,10.723452,-11.526247,-22.188898,-4.0381584,-8.443628,8.172145,3.203895,3.0436804,13.525055,7.8479333,-13.762184,-20.660065,11.8402195,9.814452,4.752635,1.100201,1.6542286,9.090371,11.239037,2.4564178,4.5202823,-4.3902445,11.989248,7.762508,6.616376,11.363965,8.125442,8.70632,7.7090263,-11.169368,-18.837261,12.390381,-2.9227812,8.118378,13.212314,10.071675,-19.050632,12.368906,14.438033,-11.560373,7.744546,5.1320014,-0.749964,7.8477674,9.94806,1.655909,4.2601957,-20.709852,3.2248323,-1.6886399,13.131171,13.947536,-16.710724,-14.806071,13.404479,2.1902826,18.123756,11.330641,-14.821651,10.443406,-1.8492421,-3.6235154,-15.75364,14.063479,-12.558372,12.286369,-8.323958,3.883765,-22.431665,-8.626763,-19.999884,-14.260721,2.6337495,15.615441,-21.179573,7.256277,3.1010654,-3.90697,-14.263493,11.020899,14.469003,18.52604,8.186145,-18.385918
id10384/qXG2i6-PxZY/00013.wav,-30.779009,-6.464412,11.666168,6.746739,6.1493773,-5.7744174,-23.49609,-12.450263,11.505693,5.0473905,-19.305834,-15.975918,11.391223,9.377845,10.586977,15.830877,8.20684,7.204975,2.751401,7.2623215,10.707533,12.939746,-4.052996,-12.747462,-15.655069,-1.8847066,-17.89227,9.181642,12.002625,10.758108,-0.7035704,15.3266535,5.7546186,2.5129714,8.749465,-21.813105,8.527693,11.652008,-9.665029,-12.879877,9.768917,-3.6730132,12.059455,11.1795435,7.8095326,-25.982647,-4.676028,3.3148875,-31.729301,18.317204,3.0896847,12.617331,6.105705,12.852333,-26.519644,1.0080109,0.22009416,5.051738,10.090761,5.1841235,10.003541,-2.4569738,-3.395125,10.339289,6.941549,3.5145175,5.0776396,-12.783974,-17.00718,-15.434225,10.496976,2.9408512,16.255838,5.7173233,15.129368,11.995222,1.2530565,3.8223274,-20.859377,-20.775774,-22.93334,-18.286705,-22.262579,-20.162916,-7.702822,-17.542582,-24.902594,14.247939,7.7769117,16.667353,7.5618367,-20.399437,5.154822,-16.228865,12.389035,-9.957961,9.226655,6.737967,-9.732256,-24.822365,6.7814217,-29.544693,-30.497684,10.239037,12.933982,-10.578154,9.735641,18.540567,9.653006,8.774664,-23.280966,8.064599,17.972902,4.654754,12.568772,13.938635,-20.010202,4.586567,-16.13068,2.6328435,8.129339,-23.926308,15.858293,11.358625,-13.599479,11.630213,-17.420494,5.8644977,9.884119,8.806367,4.1796775,13.985826,11.660197,12.911596,8.435764,-17.993814,-25.183437,12.295714,-20.524471,-11.7127075,9.563477,1.0050848,-7.54932,12.858272,-15.864012,6.1190624,7.8211856,-8.978097,10.531685,-20.429178,11.225564,-14.127426,-23.714567,11.574587,3.3555453,10.834426,13.09726,-21.478954,-21.253368,8.681259,11.360741,3.6468513,11.78469,-12.364211,10.8954735,2.4884772,12.812971,3.8452291,12.340017,12.607245,-5.486711,-33.00627,15.189467,-19.248665,-11.039084,6.716861,-20.132093,4.9793415,9.169326,-24.115229,6.995921,-19.856918,7.726491,-1.2723829,-19.823692,-2.486464,7.8092785,12.746975,-21.846802,-15.191213,2.8880143,6.7102175,-21.989923,9.576666,9.893157,2.0210853,8.240796,8.684125,15.020536,1.3819472,11.767587,8.999888,-14.310372,2.0079007,10.707503,5.336651,15.38451,6.153686,10.82379,-3.0825794,0.4016999,-20.478214,-13.873612,11.402945,-20.681755,11.389253,8.943144,-16.108475,11.566114,11.365315,-16.301378,6.093587,-23.702333,-7.28068,13.290472,14.515191,10.3131485,14.677911,7.632331,8.361589,-2.2707837,12.92755,8.979232,-13.145834,7.117179,-2.2172601,14.77118,11.986002,0.041669227,11.923399,-17.35082,5.314179,-24.964808,8.705836,-19.20695,15.104883,7.075111,3.7500105,12.600909,4.326893,8.651631,6.70093,2.075168,-17.280333,-0.28615066,10.939591,6.76001,12.252212,-21.865107,11.561048,9.677818,-19.785217,15.333851,4.716133,0.3429236,6.6589594,10.201665,7.721595,-2.1497715,-16.298702,12.56097,-3.5135908,4.2634783,-6.594953,-22.051872,6.3810606,15.736716,8.737837,-21.416212,-23.09121,3.3031461,9.492873,11.270512,-23.566172,-7.3738656,9.887697,6.339481,17.234581,-21.275013,1.1431631,7.810492,8.368414,-5.561159,11.266562,3.3706734,5.82969,11.692417,7.320882,4.075731,12.839679,12.8899145,13.96245,4.6880546,-23.669147,9.57949,10.190275,10.462683,12.564113,11.467777,10.44284,19.829935,7.1527987,-5.8063498,13.592558,-21.538528,-19.858585,-6.376244,4.1089234,-17.857033,18.206459,-11.2316475,8.655833,-14.68661,1.5226302,10.949293,-20.130356,10.743081,9.69606,-18.285114,-19.12063,-21.04471,-0.6459023,8.929054,11.599627,-16.68751,7.2372875,13.881975,-3.8481371,1.7710817,-7.3873587,8.38063,-16.4673,14.447894,4.32139,-21.36104,9.870136,11.922704,9.318636,-10.983569,-21.86921,-14.573626,-7.0273113,-18.827133,23.711561,8.895181,-11.813448,-2.166207,14.571829,-15.352497,-0.1530207,-26.371916,3.4097981,7.468229,3.4106565,13.392285,0.6664739,-17.726547,2.8159778,8.490239,12.644153,3.2879167,10.210595,-20.234722,4.7518096,-2.9958348,-0.7474664,11.051036,2.1749585,17.16047,10.569211,-16.223087,-26.491192,12.4144,4.602493,4.683444,-11.525604,12.383934,-22.855621,10.907797,10.609837,4.9537005,5.7049446,-11.162562,10.200868,16.551718,7.004143,9.635447,-22.14405,9.867156,-4.7826176,6.834509,-13.871346,3.56028,1.7286171,5.998342,2.7523413,0.59240884,-21.956104,-20.580982,-25.11929,-0.9182798,11.751361,12.593007,-3.6638591,13.242296,-17.411535,-3.6164937,-17.85865,-28.414093,-13.585791,-18.790539,-0.65660214,12.945421,-8.0660715,-14.647614,5.9347553,17.694115,9.774835,10.395529,-14.589458,-17.05116,-3.765575,-7.12548,5.8769135,9.258572,5.145878,14.956358,6.6907763,-11.059637,-22.222832,9.15997,13.442048,4.2443633,1.2587721,2.498307,9.836668,9.395183,2.7816386,4.677728,-4.117937,7.2024317,6.419368,8.065896,10.410501,8.606542,7.8096714,7.6312246,-15.2905245,-17.19248,13.509247,-2.8580573,7.5771136,14.644509,10.415607,-21.59565,9.160668,14.846883,-9.996685,9.006195,3.63451,-0.8545364,13.04803,8.854918,1.3593092,3.3188415,-21.534153,3.9640195,-1.5873598,9.279593,11.515369,-16.619541,-13.109956,12.794328,4.645088,13.123353,13.910637,-14.56894,9.807349,-2.6642935,-3.812599,-13.931752,16.159256,-12.9835615,9.835964,-2.9673507,4.2966557,-22.224901,-0.16127016,-19.20245,-13.915668,2.4129448,11.120124,-23.765882,7.231206,-2.3066247,-3.0932803,-11.868979,10.28786,14.529899,13.170389,11.358896,-17.637396
id10384/qXG2i6-PxZY/00007.wav,-31.973326,-8.360978,5.565727,8.292895,1.5721489,-10.039672,-20.04294,-12.739521,8.916396,5.9041896,-17.45613,-15.858517,13.450089,10.090772,9.321961,13.289106,3.0507214,10.298754,3.1645129,7.491209,11.982127,12.274055,-4.329865,-13.21772,-14.4693165,-2.2418687,-15.75204,9.748961,13.477883,11.919327,-0.74799854,16.871378,5.592463,6.9721465,5.9816494,-19.002884,5.1655693,13.950985,-10.574315,-14.110335,13.354809,-2.0095766,17.04221,12.707511,4.652039,-26.632803,-4.837263,3.4770772,-33.821125,19.321423,0.986858,12.772129,9.639503,10.76387,-25.233442,-0.2204342,-1.0348874,3.8778427,10.063671,2.300924,11.094684,-2.7199223,-4.249632,13.8213005,1.6246387,2.9137757,4.281909,-12.899636,-16.931522,-17.294685,14.32532,3.963442,10.9803,5.955587,15.312182,9.5907755,1.6964147,7.349269,-14.049446,-19.77308,-22.77239,-20.826992,-26.36046,-20.207296,-8.442596,-18.460585,-24.164371,14.711844,11.540849,14.888139,8.019128,-24.087479,5.5333667,-12.306044,14.723762,-2.686892,2.9247437,11.291873,-6.1941276,-23.809786,7.2800894,-27.345398,-26.665112,14.113498,16.116154,-11.535615,11.228879,19.06008,10.313388,10.271437,-21.366009,7.153076,17.219427,7.5034533,6.362628,13.752043,-20.218004,1.3810043,-14.462994,4.004115,9.82319,-26.019003,13.031411,13.038367,-16.750458,12.526932,-18.540499,9.14048,11.95669,8.906885,3.3464344,10.391702,11.207377,12.477925,4.6799197,-14.535501,-32.137245,10.800728,-22.661623,-11.6827965,8.940812,1.0127254,-10.080067,12.084601,-20.315979,9.448193,6.744459,-7.091407,11.39816,-17.529724,20.821512,-8.866465,-26.362062,12.461598,3.4804718,12.083331,16.960463,-19.030426,-22.060799,5.554602,9.418132,3.821711,5.426858,-14.854194,11.966455,2.662335,12.603389,6.573852,10.276694,13.8195915,-7.7541356,-33.180912,14.224406,-17.252848,-11.617232,1.6957958,-22.730394,2.9649663,9.820558,-18.668322,9.331534,-23.958101,10.117644,-5.4861236,-18.406315,-2.7436771,7.6216435,11.436445,-23.637426,-13.487919,1.1800151,8.409814,-23.203276,10.873377,8.715337,6.3729486,7.7592516,9.133851,13.789509,-2.084454,10.985261,12.106044,-13.526118,2.1392338,5.2516403,5.736444,23.371632,4.5445223,13.881347,-7.45359,0.6804277,-21.003708,-12.607766,14.884424,-24.546974,13.870239,11.047767,-19.09224,10.941256,3.274728,-14.677327,5.2065372,-22.512564,-7.441841,12.088065,18.258495,11.711229,16.308802,7.092313,10.210012,-4.7793527,14.200639,7.896948,-12.669693,11.312582,-9.968691,13.756684,19.114338,0.051336654,11.685014,-20.1816,5.8102484,-19.549751,9.413726,-17.64668,10.401808,9.695749,4.320955,13.136234,4.380317,7.2234845,3.4938304,2.5281627,-22.730204,1.7203515,10.687543,7.8825865,11.861159,-23.735403,10.789843,12.483406,-22.36583,7.5348577,2.6385996,0.38343766,4.4467163,14.543847,11.426888,-3.9944704,-17.224203,6.4633064,-8.373533,8.3509245,-10.905679,-22.703592,11.333272,16.56578,6.892428,-21.164196,-21.286963,3.5310848,8.766965,13.869444,-19.495186,-9.760987,14.597079,5.7336717,18.842577,-19.40298,1.4124987,6.696957,7.110066,-7.5708547,11.300345,-4.5347686,8.578213,14.128825,4.49604,3.1681054,11.90111,13.06635,8.632984,5.308648,-27.180952,6.89947,9.843919,10.725838,15.009775,15.4803295,10.200546,14.791526,2.8176591,-5.0070305,15.16646,-22.322447,-22.942951,-6.8133183,3.0421352,-17.670212,19.552258,-11.76005,12.980829,-15.275297,1.5615242,10.494847,-19.62465,11.873454,9.531067,-21.440546,-18.683897,-20.72408,4.508453,7.6168604,8.340233,-19.374105,2.8423827,9.944752,-4.604333,6.198653,-10.825505,9.217546,-16.90628,14.849099,2.724094,-21.353424,5.513897,9.471742,14.07346,-3.7901018,-22.85231,-14.079366,-8.457938,-21.276346,24.434816,13.847516,-12.695878,-2.3793428,11.1034355,-9.27298,-5.880382,-28.917055,2.507555,8.397758,1.3551366,15.00561,-1.6345024,-13.841109,2.397338,9.630231,10.087192,3.9668355,11.446008,-22.15674,4.6421747,-3.2804153,-0.7577456,10.033478,1.7011806,20.874186,14.143945,-17.893509,-26.950947,10.715167,6.030737,3.9488873,-11.132787,11.538435,-21.51566,13.605412,5.135457,9.433577,5.5723224,-9.800898,7.230534,16.460722,6.736027,2.3512096,-23.371204,10.250556,0.55908805,9.987895,-10.676256,7.2308793,0.57938945,9.403076,3.126206,1.5579371,-19.464626,-18.025976,-23.670488,-5.88229,14.224846,10.558676,-4.1040907,11.376197,-19.185667,-2.5203388,-17.797054,-32.658524,-14.436592,-19.264875,2.6462638,14.413795,-10.760674,-12.848942,7.156109,20.979359,8.047365,10.110244,-15.368603,-15.460775,-4.622895,-7.697653,7.7695394,3.9421523,4.723271,13.717232,7.271191,-12.185047,-21.791609,8.146574,12.877431,3.561514,1.2278507,6.4110103,8.1905,11.85132,3.3649175,6.5484676,-4.692931,11.304411,11.522325,11.542373,11.701343,9.405116,9.0714445,8.297591,-9.725385,-15.005363,9.433223,-3.1664455,12.013389,7.743664,6.203549,-16.732069,12.805967,15.163952,-9.848279,11.504713,4.3601003,-0.91145325,11.5039835,7.6555915,1.5609307,10.582103,-20.884314,4.138556,-1.6882986,13.162216,11.64142,-18.055643,-12.126402,14.129624,3.5384057,17.076107,14.023557,-13.498945,10.286992,-2.6050494,-4.5610743,-17.76896,11.637836,-12.297456,10.707808,-7.1874065,0.4672938,-19.58374,-4.266897,-19.020061,-10.772834,2.763941,7.2647314,-21.310476,5.9448533,-1.3573875,-3.1254468,-12.654236,5.07242,16.799664,17.394186,12.894127,-17.648998
id10384/qXG2i6-PxZY/00011.wav,-28.884367,-8.495335,6.4154787,9.127288,4.2277174,-11.405812,-22.304691,-12.828795,14.835162,5.9139285,-16.40776,-16.6832,11.924001,9.845462,13.021739,15.303101,1.8588401,9.376831,2.7626166,6.9675703,11.693228,11.851911,-4.3881254,-15.963573,-17.512983,-2.0881052,-19.537228,4.8618317,13.408365,9.68582,-0.75683177,19.668715,5.1772437,3.4265668,5.1908693,-23.39518,7.9564347,14.333205,-11.780492,-11.94752,10.230689,-6.9575353,16.60195,7.707677,3.9270072,-28.285275,-5.0517197,3.5592802,-30.146498,22.066216,2.3826466,10.196701,6.440927,11.307175,-24.003546,-1.7727118,1.2041402,5.161819,10.045907,4.414738,12.617348,-2.7758725,-3.8258457,9.603699,6.0823197,7.3298287,8.657544,-12.331238,-16.838465,-14.450093,11.946779,3.6659956,10.890207,5.621237,13.434736,10.214717,0.56583464,7.2668214,-16.291222,-21.530622,-20.156414,-18.437588,-22.559,-20.00329,-8.817741,-18.116549,-24.494957,13.820689,8.339202,18.738869,8.197076,-20.738352,3.52988,-18.836845,10.234091,-6.5571527,6.9517927,7.746831,-5.5038953,-27.033587,7.38594,-27.56495,-31.648085,13.595602,11.744314,-9.773297,9.423988,18.255655,11.118458,6.494419,-20.868826,7.0337234,18.471268,5.076798,9.879732,13.002756,-19.116438,0.9790588,-14.602575,3.265737,10.190057,-26.045233,16.453648,12.991146,-16.144653,10.660835,-20.591608,7.680333,12.430227,7.836019,2.9313076,10.344918,12.038502,13.3735895,7.3504605,-14.653265,-24.82959,10.228537,-19.93184,-11.35298,12.570448,1.0752861,-11.615079,8.299019,-14.64085,4.687085,4.7808876,-11.128859,13.050112,-20.151585,18.111124,-12.278476,-26.454008,14.887188,2.7254322,9.322787,14.23136,-19.971218,-25.860647,8.818647,8.635674,3.3459792,8.831568,-14.97565,13.431387,2.5772963,10.578869,8.292503,12.0320635,12.839726,-7.4529934,-29.459717,18.423689,-12.428995,-6.95187,0.6651127,-20.236511,2.5393105,10.635971,-21.906385,10.341449,-22.42421,11.206642,-3.7679617,-20.618008,-2.7970173,7.7833676,13.210771,-22.37336,-15.809377,-0.4025624,9.891579,-23.965025,12.482143,9.169775,7.4251523,9.110704,6.4014044,11.722555,-5.267713,10.310288,10.661185,-14.119061,2.162051,9.360667,5.842137,19.454485,6.540857,13.233993,-7.0181036,0.6150292,-21.743996,-13.513938,14.322562,-18.810738,10.908337,10.554615,-19.610472,10.010501,11.103921,-15.089811,11.976382,-23.683502,-8.592693,14.234707,14.369414,10.176186,14.692026,8.615355,10.720224,-0.84953934,14.415816,5.844284,-12.6984,8.57634,-4.6297717,12.116436,12.922979,-0.016005645,16.41996,-21.857014,6.223865,-22.508196,8.248083,-17.745865,14.47205,10.2411995,2.2083063,12.023677,3.5494418,8.620362,3.4618115,2.3084648,-18.519133,4.4133363,10.195191,7.0793777,13.405521,-23.001778,9.917807,13.940819,-21.345028,12.429537,3.6774492,0.37943497,3.994709,13.792287,5.8559227,-1.0978881,-17.879164,11.130791,-5.7242,7.0828805,-11.229158,-19.92039,10.694016,18.722748,10.5537,-20.369461,-21.45365,3.2473896,10.138908,13.155005,-21.118404,-9.412474,12.743817,3.3386059,18.96631,-20.070723,1.3154956,6.9081926,7.3065343,-6.030977,12.975509,-1.5380796,9.46998,9.735962,7.1249995,3.5870311,10.074816,13.960414,11.672645,5.5666943,-24.99058,8.597764,11.44222,12.635787,13.344278,9.164433,9.051841,14.851836,3.2656639,-2.8783119,13.305755,-22.408749,-17.701347,-6.7192664,4.4018183,-18.620243,19.03326,-11.2366495,14.3545065,-15.090491,2.2449656,12.062081,-22.262707,12.753689,14.694394,-18.11204,-21.331057,-21.076263,0.56755954,6.978908,9.720099,-18.750216,5.833927,8.46788,-7.726112,1.5968199,-8.857704,11.352652,-15.917743,11.69196,3.3558877,-19.146608,9.147016,14.259062,10.202438,-10.240568,-22.839409,-15.619943,-9.110828,-20.5524,29.995018,14.084281,-12.697152,-2.1691563,11.458351,-10.4122715,-3.3425047,-28.149822,3.540886,8.9534025,4.899432,10.722742,0.6126799,-16.493385,3.7430465,10.971274,12.924319,3.2871475,12.465281,-22.239311,6.181297,-3.734739,-0.7544612,8.454727,2.8981936,19.962135,11.069964,-14.840791,-27.361397,7.820628,4.784301,3.329095,-12.447865,11.571505,-21.210693,11.985486,5.634304,8.995726,4.131657,-10.122558,2.8450317,17.210045,6.254275,6.8083057,-24.353634,11.622935,-2.2080727,5.449713,-13.911653,5.0127726,-2.204035,3.9229746,3.0329301,-0.06533407,-19.382065,-20.40844,-23.15944,-0.7498206,12.73328,12.486059,-4.078583,9.539464,-20.508312,-6.0686693,-16.489319,-33.3397,-13.567604,-16.262522,-0.23797949,14.06996,-11.592939,-15.474171,7.6414585,18.753548,9.493341,9.82854,-12.479101,-22.459534,-4.282687,-7.4989247,9.552476,7.159067,3.4150555,12.65378,5.067289,-15.788189,-21.356628,12.510623,9.608814,5.0090733,0.7960701,3.2986798,8.222239,11.308731,2.7578182,5.554585,-4.211756,10.706487,9.213745,9.469125,11.360132,7.5194516,6.3110523,7.12338,-12.337431,-17.23852,11.2558775,-3.565613,9.64085,13.6977215,4.4970365,-19.103977,13.204342,14.858468,-11.9033,6.2703185,4.6925755,-0.7902551,10.175068,8.656647,1.4220672,9.2143955,-19.244474,4.239873,-1.7483667,9.186134,11.989725,-16.080873,-14.039796,15.782964,3.1505694,15.826663,9.80607,-14.85417,12.22586,-3.0697377,-4.1079464,-17.494295,14.075394,-12.877855,12.902649,-4.7703934,7.2152305,-20.091711,-3.1619346,-20.379128,-11.956657,2.5568285,11.658116,-21.497301,7.037711,-3.6254175,-3.4768836,-14.109616,10.424204,14.390337,13.875815,11.210559,-15.04459
id10384/qXG2i6-PxZY/00005.wav,-29.877596,-7.2392616,8.58601,13.91867,4.6686907,-7.372252,-25.858631,-13.833156,14.760344,6.023524,-17.023914,-14.679146,16.637499,9.649344,10.116326,14.857222,2.2752016,8.763796,2.26419,5.762402,11.525423,14.111625,-4.0283294,-20.476925,-14.684604,-2.4200594,-17.355816,4.6525087,10.820298,9.77031,-0.83188164,12.539035,6.0538254,6.305076,3.8282652,-23.404625,5.8418922,12.420227,-10.815448,-13.07689,11.574463,-9.267563,11.250062,5.4888296,2.9257731,-27.900845,-5.138091,3.4727492,-32.053978,18.28175,3.800737,13.261153,2.9652631,15.411761,-25.730824,-1.9231538,2.9007719,6.3603015,10.352502,6.328201,8.989268,-2.8113744,-4.2267046,11.121098,8.666148,9.7177,3.578952,-13.462919,-18.516035,-15.029994,13.001477,3.511696,13.208265,5.443584,12.608659,10.4084015,4.306782,3.0321522,-12.844445,-19.523619,-19.896086,-14.159975,-25.75207,-18.49188,-9.103545,-22.65793,-24.50822,12.976277,9.406657,14.810056,8.441474,-24.067076,3.8545005,-18.165495,14.81938,-3.862406,10.115862,11.154757,-5.852448,-24.691156,7.779187,-28.64256,-21.309885,8.796477,13.003998,-12.045297,11.772862,19.131227,9.676779,6.5422087,-19.511309,5.1029835,16.990332,4.4249525,9.008952,16.931543,-22.203884,-2.1121678,-10.932788,0.29124588,7.694863,-24.135809,14.908904,14.252552,-17.683943,11.683489,-21.502527,9.136129,11.935022,12.529726,4.4089756,12.719236,12.555412,13.148724,5.4470882,-16.483202,-30.219234,11.226526,-19.936495,-15.318148,11.110651,1.0748898,-10.887825,11.786182,-19.026752,10.28353,4.42179,-11.327168,14.294483,-21.421213,18.078957,-11.039898,-23.364569,13.332835,2.1968634,10.858767,13.27268,-19.987484,-24.251759,8.303131,3.3963604,3.1943667,4.468817,-17.23458,11.760642,2.8062644,8.750699,7.120164,13.319799,11.574565,-5.7803574,-27.860016,20.244387,-16.797144,-9.82499,0.8955223,-19.507854,4.201337,8.095358,-23.262152,8.959449,-20.321796,10.975625,-6.828485,-21.832466,-2.7112734,7.1331787,15.567408,-25.143692,-17.117575,-0.33856574,9.265719,-19.879051,12.348225,6.7259803,7.038355,6.0311155,5.411485,11.701762,-3.7170134,14.4258,5.7437553,-11.800275,2.1493502,7.2301807,5.2544518,15.904279,7.4786015,11.604424,-1.9462566,0.6835568,-23.38916,-13.100309,14.586423,-22.427874,14.769808,9.690947,-16.751806,8.928781,9.22853,-16.549686,7.321034,-24.020418,-8.833923,11.564459,15.895079,11.986119,18.181948,13.961764,12.11734,-8.331745,8.119025,11.120228,-11.7880745,8.399655,-3.2362008,18.36946,13.194116,0.034076285,13.371075,-20.417994,6.9581723,-21.352062,9.564216,-18.159595,12.541225,8.766766,3.9224749,13.79583,2.0658565,8.5749235,5.2461243,2.2464073,-22.04493,1.5422709,13.097741,10.013884,12.082376,-27.063993,8.244919,11.630497,-22.234226,11.849515,11.427793,0.43336013,5.8699923,11.266816,10.649897,-1.8329035,-18.140017,11.442385,-6.619343,10.101071,-12.452116,-22.05885,8.476529,15.730975,7.589231,-21.399424,-17.149874,2.8366685,7.3915067,14.624068,-21.637688,-9.6051,8.538944,8.413536,19.634134,-20.106388,1.1641986,6.214489,5.8653507,-7.227436,11.121022,-4.755579,5.5230913,12.35667,9.109109,4.427085,8.321962,10.639957,9.815379,6.109028,-21.66094,5.4201713,12.24174,15.7082205,14.206167,15.096283,9.527717,13.00245,6.4357834,-3.8388622,13.872327,-23.809488,-21.078997,-7.035455,0.8088224,-19.483082,17.25359,-8.255083,15.655918,-15.410318,3.462895,12.238812,-20.846458,13.282369,15.288015,-20.931503,-25.49711,-20.655455,1.3849021,7.762021,10.10013,-19.170368,9.136874,11.524427,-3.8751228,1.9005799,-11.061424,12.329511,-14.899717,11.585595,2.5500927,-25.140162,7.6044173,10.8085375,6.6046734,-8.02118,-27.925327,-12.052283,-10.097236,-21.009161,30.630983,14.349144,-12.813837,-2.402579,14.103451,-11.635129,-7.2140665,-31.750238,4.495781,6.35828,3.4990644,6.735468,2.3394358,-16.333052,1.5906992,9.9246855,16.154745,3.7435443,10.056424,-20.337212,6.4159837,-3.719781,-0.7588023,11.639214,2.6067708,20.587475,11.084488,-23.143044,-30.72377,6.4077315,4.4126267,0.79422337,-13.583352,11.320442,-21.385567,13.419265,5.3640203,4.965283,5.113981,-11.9520855,6.938408,15.22547,5.042914,2.5625947,-23.5501,9.97793,-3.9142833,12.200227,-15.483614,3.260567,-2.6645832,9.651175,2.9805868,0.88063455,-20.837706,-18.422657,-23.112917,-4.381826,10.869269,18.285896,-4.124934,8.713183,-19.049976,-1.7593163,-17.670923,-35.656868,-10.043941,-18.640636,-3.1994965,15.6184,-8.408093,-16.068407,11.072319,16.012009,11.521039,8.382925,-15.072214,-25.70153,-4.3253946,-7.9365535,8.87143,5.5032043,3.483346,13.852101,9.77561,-13.066507,-22.343073,7.086355,15.137152,4.6147966,1.08954,10.012891,12.323882,11.435121,3.0432436,4.0934815,-4.3161197,10.418885,11.472867,7.719391,14.273197,3.5701578,8.917879,11.941114,-11.442634,-19.779593,11.170992,-3.6428595,5.8270054,12.505398,3.1214163,-21.603664,14.291573,12.002336,-11.233329,6.801531,1.9214702,-0.84807,13.346261,5.3174157,1.568321,8.471109,-23.08235,3.4453154,-1.741442,12.879722,17.226963,-17.548306,-15.037065,18.197027,-3.6413348,18.423525,11.6953535,-11.562937,12.691212,-4.6680613,-3.9310195,-16.521894,12.111174,-10.475062,8.003257,-5.443966,4.013022,-20.718283,-4.456972,-19.541447,-13.711503,2.6290712,12.124431,-24.467764,3.4558148,-4.534285,-3.6319256,-15.163007,7.956408,15.228884,9.21896,14.43941,-18.350414
id10384/qXG2i6-PxZY/00004.wav,-30.106089,-11.619347,6.812475,12.329423,6.6935973,-13.09782,-24.64672,-15.57541,9.912996,6.238719,-19.442942,-20.06568,10.237466,5.9331584,9.165103,15.682642,6.5362487,5.783532,2.898181,8.174821,12.906803,15.304355,-4.498675,-13.074478,-17.478392,-2.1848135,-17.717869,6.504969,10.780838,14.615439,-0.9008238,14.97155,6.049368,0.0031977296,4.2219033,-24.418816,7.614104,15.657527,-13.265965,-13.430707,10.0899105,-3.4722834,14.983375,8.285492,7.3685155,-30.365725,-5.215534,3.9628544,-27.732521,21.29257,2.2626464,15.621004,0.38981715,12.101488,-28.367373,1.46665,2.2558486,6.305513,8.646727,1.2957374,12.190747,-2.9541159,-3.7519164,8.086961,5.754755,10.1733055,4.4905214,-11.631779,-19.546951,-13.717473,11.07112,3.817766,14.000026,5.804798,17.170431,10.478855,-0.113141485,2.6050465,-12.519383,-22.08231,-20.133047,-17.522072,-23.140001,-21.74951,-9.322173,-16.338686,-27.098488,14.528735,5.799317,17.312466,9.133034,-21.471142,3.366794,-16.91059,12.92216,-8.800803,6.614126,12.384705,-3.8279846,-27.449718,6.7716856,-30.222412,-31.142973,15.704856,14.100303,-8.385295,5.244791,21.117517,9.838711,8.366876,-21.21192,7.3658447,19.684383,3.6611996,8.448628,15.268876,-21.947594,-1.1977909,-16.391546,4.25836,7.873091,-26.01797,14.60222,14.500117,-17.949064,13.006849,-18.063755,8.545764,11.16736,10.566087,8.320968,13.047884,10.794568,16.945343,6.4849615,-16.650421,-23.66135,11.338884,-18.49809,-11.490782,10.180562,1.0376518,-8.499309,6.5317793,-13.439861,7.4064007,5.5449395,-11.430445,17.050957,-23.589882,19.458052,-12.204429,-23.843561,16.144756,3.8553064,11.819627,15.479005,-19.957144,-23.826069,8.4205475,8.671504,2.2116528,7.935176,-17.06574,10.16205,3.1561775,9.143625,4.7177267,9.195974,10.674227,-12.382728,-29.68267,18.487461,-15.174789,-8.972749,0.3555705,-19.348452,4.3584514,7.1292253,-24.210257,10.767696,-23.68351,6.587348,-2.7092195,-21.988949,-2.9856846,10.603656,12.536812,-24.23176,-15.051984,2.97936,7.445322,-25.434805,10.24534,9.448653,5.6957707,6.2153487,8.3917,11.163185,-0.95180166,11.452109,11.095464,-12.452706,2.3722591,6.408747,6.296369,18.720814,7.179333,8.515563,-8.009758,0.48764333,-19.65105,-15.506784,13.517997,-19.152466,11.027855,11.660272,-15.303018,8.807184,10.184417,-14.266862,6.1788044,-21.098537,-7.179058,15.909824,12.968577,11.691137,20.320583,10.69751,9.4768715,-6.278693,6.8022966,8.797766,-13.741036,8.908384,-0.74222153,13.235004,12.102818,-0.091714785,18.842112,-23.006039,6.740132,-22.982529,9.693571,-14.21431,12.873337,10.226925,0.1466408,10.478063,2.2894642,7.9106965,6.776433,2.329862,-17.92963,2.9687407,11.654347,10.378735,15.469827,-24.850466,12.098549,13.864591,-18.794298,9.13752,11.059351,0.47743514,3.3743577,11.718718,9.678213,0.38153392,-19.101183,13.239953,-6.944194,6.485933,-14.062857,-21.362753,10.54262,18.705322,7.930861,-21.828472,-19.79558,4.0700173,10.343329,10.950085,-20.966766,-11.655428,9.371645,4.407186,19.230341,-25.359444,1.4411596,7.15922,7.2315965,-8.975769,11.1480055,-2.3302226,7.517758,12.244239,8.883003,2.182014,6.9944935,16.325085,12.494865,6.1973705,-23.331945,6.6578956,13.502131,14.18909,13.4710865,14.310696,11.316715,13.521567,9.380124,-6.671448,6.480635,-23.541142,-16.225594,-7.4793906,1.8930802,-20.928339,17.135008,-9.365879,16.27866,-14.215069,1.9488142,11.438984,-19.43392,12.560089,15.509516,-16.725195,-21.721153,-22.53031,-1.2243313,5.407728,7.2166095,-18.93079,4.9366055,13.4359455,-6.6216393,1.9260278,-12.053405,6.6532364,-16.583633,9.794006,3.4023325,-22.925453,6.4402375,10.596548,12.792191,-11.156357,-24.195961,-15.261672,-12.01854,-21.396881,30.824518,12.847059,-13.448038,-2.168742,13.610906,-13.191074,-4.7112813,-29.985783,3.8404922,5.31142,6.10594,15.385264,-1.7291243,-19.395262,1.5000293,9.819974,15.953204,3.4481564,9.0266695,-22.932999,8.659014,-3.668027,-0.9106819,10.477245,3.1875417,20.752121,13.251225,-16.73148,-28.608973,4.740027,4.7089133,4.0121818,-16.6849,15.046494,-20.6986,11.869295,6.993827,6.517578,3.011532,-10.265874,8.420654,15.825513,7.5557256,7.4421024,-24.698605,14.067438,-5.4150467,8.080195,-15.731907,2.9531002,-4.528348,7.5645494,3.051543,-0.85357624,-20.330082,-18.536993,-26.463766,-0.10300568,14.157356,13.813074,-4.259015,11.504762,-22.046843,-4.9997997,-17.247221,-36.660492,-14.122832,-14.612548,-1.5775877,18.208796,-15.20519,-13.882359,6.925787,17.581,4.9430275,8.996694,-12.814478,-24.576397,-4.186751,-7.8947988,7.8196,12.521307,2.814316,15.153576,5.2705483,-15.750133,-22.574953,10.974522,13.130955,4.748008,0.47444016,5.317249,11.398443,11.327264,3.1987545,3.7213402,-4.440077,8.331415,14.295966,6.082802,13.314475,5.6319737,10.764457,11.089542,-12.794426,-16.787481,12.088515,-4.016809,7.3381248,9.579602,4.494814,-19.959122,12.936102,17.476849,-11.279937,9.841158,4.028921,-0.8529233,10.765236,9.393488,1.5223241,5.2072096,-23.94997,2.2743938,-1.8413241,10.307063,15.515491,-14.677057,-14.548535,15.245438,1.4517591,18.308937,11.00024,-14.842124,14.391714,-5.1352763,-4.4809628,-20.274572,10.829031,-13.325932,12.104126,-7.732257,7.0816913,-24.65513,-2.4258862,-21.760641,-12.173993,2.6848335,13.095574,-21.533243,9.99271,-6.3518376,-3.9782631,-15.946895,10.470653,13.554099,15.10443,12.3210745,-17.026764
id10384/qXG2i6-PxZY/00010.wav,-29.259457,-6.6299033,7.475661,8.302377,3.567438,-10.621411,-20.984165,-12.305739,14.461987,5.648311,-19.554663,-16.889574,13.491792,9.594458,11.039788,16.128122,4.3457003,12.300409,2.311265,8.276351,10.466103,12.946563,-3.8872466,-16.022799,-17.14481,-2.4327793,-17.076984,5.213389,10.5947895,9.512164,-0.8844886,17.39386,8.386735,4.805661,5.366863,-22.144176,6.205895,10.785512,-11.29717,-12.502948,11.050825,-8.393277,15.743375,10.007379,5.0087457,-26.574883,-4.9770546,3.4807973,-31.912937,20.260141,0.9482521,14.903515,8.937088,11.591343,-26.627592,-3.1805637,1.246363,6.115173,7.4255915,5.8012996,10.343154,-2.6296349,-4.0300145,9.613882,6.1426077,8.504225,7.308152,-12.442175,-17.261427,-15.720127,11.02287,3.4759195,11.532417,5.3313746,10.86442,10.311091,5.5427327,3.9837077,-19.520649,-18.636524,-21.940825,-17.4577,-22.306032,-21.4156,-8.8814535,-19.042412,-22.769245,15.055568,9.02945,15.190316,8.063741,-23.042957,5.139637,-19.502398,15.127708,-5.5184994,6.4204006,13.186012,-5.1781077,-23.83793,7.9143662,-27.900545,-29.854103,13.424939,11.007576,-8.682365,10.553014,20.2606,8.714979,7.6358747,-22.478249,7.4261255,18.706802,4.555915,11.037698,13.722641,-20.569824,-0.73490995,-14.042687,0.6611592,9.726971,-28.7877,15.079465,12.212511,-15.649862,13.591266,-19.912237,7.012968,10.892929,10.129147,2.2297301,14.055166,10.979797,15.766345,6.4568787,-16.137192,-27.48915,11.23015,-20.756603,-12.517506,9.987879,1.0427613,-13.137467,11.057557,-18.340925,6.7367697,7.3145304,-10.004137,12.960404,-21.014572,17.89981,-13.455175,-24.562563,12.640152,5.1105437,10.959025,14.686039,-17.675926,-23.636131,8.108232,10.034682,3.282522,7.8100305,-15.328379,11.033669,2.421433,9.313318,7.001597,14.40012,11.404924,-7.373967,-29.47355,16.246449,-17.842125,-10.8562765,2.6572483,-21.634825,2.54681,9.870751,-22.027447,12.792795,-22.56034,10.422548,-1.36489,-19.454006,-2.6814415,7.2792,13.513901,-23.088482,-16.673096,0.6422737,7.434577,-22.296814,10.554473,8.295905,5.447888,10.076477,7.627916,13.939376,-4.4394655,11.238284,9.898555,-13.64454,2.5990515,9.316459,4.989983,17.086267,4.790245,10.118383,-4.0135207,0.7381105,-20.178085,-14.856071,13.99113,-23.044159,12.329419,10.857134,-18.930937,8.054683,10.003172,-17.26074,5.5512815,-25.742416,-11.161266,13.892731,14.863671,10.938148,16.301708,10.753201,11.466602,-3.7975125,12.509416,9.868826,-12.877462,10.165401,-6.305624,13.926129,11.699389,0.1349724,14.989333,-22.048222,6.061717,-20.994246,8.161326,-16.625582,14.694763,7.571612,4.3101454,13.467999,6.445778,8.6007395,1.6463463,2.1439984,-19.000391,1.9067118,10.942579,7.777526,15.878517,-25.389902,10.532583,14.071363,-20.56342,11.975709,6.9327435,0.19031112,4.7501025,13.173818,10.158749,-1.2380604,-16.6431,7.5634365,-8.0883,10.339922,-12.181724,-20.348526,8.250687,15.805411,8.038051,-21.109749,-21.232206,2.8764002,8.3629675,17.0754,-23.01923,-10.245037,11.242905,2.4906485,18.012798,-21.753141,1.0525936,6.447901,8.005754,-5.107991,12.532771,-3.936959,10.351627,11.616779,7.906327,3.9815938,9.939809,13.297812,12.057597,5.7889194,-24.070887,7.9039,11.448919,12.972595,14.197531,11.1834955,11.6774845,11.518045,7.6429486,-3.9316578,18.702116,-23.175209,-19.520216,-6.1529036,5.461474,-19.45079,19.403753,-11.659283,13.560597,-15.330822,3.1184058,13.333984,-20.282171,13.499239,12.377319,-21.46894,-23.243395,-21.447374,4.064712,7.0470915,7.598724,-18.68879,7.5923076,12.17347,-5.4917293,3.3228006,-10.099781,10.653005,-16.671427,11.4835205,1.4912074,-23.451624,9.719413,13.525255,10.209091,-10.704011,-23.816051,-15.5990305,-10.972877,-20.570177,27.937405,10.147514,-12.47644,-2.2095397,10.463368,-12.646355,-5.539116,-27.789427,7.789522,6.159911,3.8332717,12.67406,2.193909,-15.36089,4.6605377,11.60742,12.963733,3.1663556,12.852672,-16.772106,4.560472,-3.4735413,-0.66681004,9.486969,2.3907487,17.932056,11.204057,-18.022438,-27.23911,5.7930107,3.581876,0.9473234,-13.277088,12.742782,-23.205563,12.370795,7.4237795,8.846308,4.0236573,-11.117717,6.5960116,15.563063,4.6191354,4.5882473,-26.352615,11.006731,-1.8744576,7.0512424,-13.76436,5.055497,-1.0706767,5.587669,2.719063,1.5809531,-20.48348,-19.738388,-23.21242,-5.7285366,14.089867,11.793417,-3.749076,12.714599,-21.12123,-1.3350656,-19.3975,-31.906446,-12.261608,-14.679901,0.5242576,14.813443,-10.988017,-15.417478,7.495402,17.579407,10.298375,10.823885,-12.438358,-20.65308,-4.0914946,-7.7864537,10.669497,3.6847382,3.4538615,12.956717,7.642207,-14.694443,-22.6955,8.713803,10.967352,4.503338,1.1215798,5.507486,8.549846,12.333802,2.619817,4.932217,-4.192711,10.358255,6.930649,8.510377,12.16804,9.477587,9.37311,8.425341,-13.277902,-17.653593,12.054365,-3.4786801,9.144679,11.786433,8.298923,-21.608511,11.343755,15.795157,-12.138029,9.900412,4.047077,-0.80658877,11.330899,8.416598,1.5618308,7.275718,-20.739477,2.488343,-1.7064291,9.797875,12.563297,-16.295815,-14.578971,15.605486,3.3722265,17.296618,14.964924,-13.408477,12.31322,-3.9048662,-3.7747009,-15.712303,14.394811,-11.877587,10.266634,-5.9141207,3.7773454,-23.165297,-1.9889524,-20.53292,-12.202286,2.312232,13.767751,-23.05288,6.4065256,-0.64847755,-3.6379452,-11.720464,9.652553,17.180456,14.096393,11.87854,-18.811226
id10384/qXG2i6-PxZY/00014.wav,-28.00651,-6.3604894,10.3106785,11.236943,6.2518325,-8.601234,-24.201424,-12.9113245,10.890457,5.1750016,-17.722694,-17.67211,11.560492,6.531623,9.1797285,16.831717,3.5578642,7.8887434,2.512216,6.9752374,10.18443,12.179163,-3.924038,-12.051245,-16.769953,-1.9997053,-19.143866,3.6211245,11.441817,11.906919,-0.72008663,13.517459,5.3283725,1.1001978,4.6102133,-21.395935,7.768908,10.796865,-11.288491,-12.046742,9.9339695,-5.474893,19.810389,9.436102,7.3085084,-27.699707,-4.5575867,3.1947105,-30.263538,19.391504,-1.8505512,12.404474,6.587358,12.767911,-26.34244,-3.0627694,-2.1253083,6.042463,9.375717,5.6867156,13.360136,-2.3895547,-3.4971871,12.92002,4.3336124,6.0075154,4.35885,-9.760409,-15.600708,-16.43262,12.486449,3.1649566,9.563831,5.7504044,12.205603,12.733097,1.5470606,2.6486995,-18.566216,-19.29619,-21.635172,-18.903131,-25.236517,-17.7083,-7.71264,-18.735806,-22.046923,14.832703,6.802475,16.821787,7.8736863,-21.601103,4.947865,-13.516729,15.292117,-10.43165,7.9336,11.059462,-4.738774,-25.478582,4.3850303,-26.826654,-29.729006,13.9914465,14.562319,-8.348853,11.487697,18.104078,9.930823,8.243246,-22.283289,10.581893,18.425516,5.2079725,7.2022667,11.841948,-22.100817,0.37525514,-16.35583,2.0144703,9.223167,-26.053427,13.1715975,12.415403,-14.649985,8.896122,-16.550333,5.5254908,9.868884,7.5957046,4.981464,12.167285,9.91346,12.985733,9.544413,-16.298409,-26.668898,11.13828,-20.654827,-13.503745,11.74942,1.0656273,-10.217224,9.743018,-15.630808,8.156112,8.071092,-8.258803,12.796497,-21.20072,16.463102,-13.225882,-25.64998,12.613866,4.729452,11.625736,13.272586,-18.289438,-21.035805,8.877107,7.157017,1.7457181,7.575562,-14.534097,8.601205,2.0171213,10.364754,6.354726,10.042937,12.142867,-5.121907,-29.360613,20.933765,-15.047339,-11.061555,-0.5287302,-21.033253,4.3744073,10.533909,-22.01082,7.642899,-22.431652,7.588437,2.355177,-23.242067,-2.3726373,7.0711074,11.150694,-24.46244,-15.436357,0.23411728,8.897894,-27.277273,10.310956,6.0366983,6.545195,8.445832,5.467603,16.654066,-1.249316,10.784743,7.592661,-14.648871,2.4242013,6.0057364,5.1025996,19.708885,1.7213626,11.48572,-9.02458,0.46571353,-18.526947,-17.380259,11.975373,-22.17731,12.323227,10.831156,-20.735928,8.446729,8.790834,-18.177599,5.848027,-20.571177,-8.988633,13.846732,15.627225,7.829137,16.381136,8.646263,13.065952,-2.5707204,11.349637,5.9556155,-10.614239,7.8730297,-4.1387634,9.997018,13.913628,0.226327,13.3835535,-18.664299,5.549643,-20.313078,9.86719,-16.91423,15.709446,5.608531,3.3991733,10.659922,3.4544435,7.8223686,6.4205484,2.0638237,-22.310808,3.6162913,10.780625,6.2039194,11.08935,-21.747507,12.860407,13.008995,-25.149097,8.614066,3.5364757,0.21262987,5.796728,13.816005,8.758676,-1.8840011,-14.151881,11.194091,-3.3032436,8.207194,-10.635253,-18.085024,8.167495,18.108984,8.382871,-17.917894,-20.913258,4.315769,8.631932,15.542227,-25.674868,-11.455548,9.246302,6.893908,17.14947,-21.90316,1.2590672,7.064345,6.4556375,-7.563583,14.874015,-5.607821,7.5362124,9.95747,6.8095284,6.405886,8.064213,12.454969,12.6720705,4.69534,-24.63812,7.565164,9.444544,14.70194,12.442979,16.924358,11.81982,14.862263,5.456613,-6.3300896,17.141777,-20.525337,-17.870821,-6.017265,1.2016754,-20.139992,17.791843,-9.195259,11.460417,-12.303921,1.1924702,10.708087,-20.936182,11.011706,9.891855,-22.496342,-20.727161,-19.176794,7.2212224,7.939139,12.200476,-20.097673,7.619174,11.939968,-7.19607,0.37047368,-9.994013,10.272679,-16.047289,12.132308,0.39601746,-22.840952,6.479196,10.376461,13.427484,-9.538336,-20.56119,-13.924207,-10.791155,-21.249664,25.199919,12.923368,-11.694199,-2.0519516,11.74899,-15.526241,-4.3833294,-26.315298,2.9870608,8.343882,3.6667151,11.974628,0.19123177,-15.678204,5.277121,8.820043,13.33409,3.0139241,12.917436,-21.980911,9.615034,-2.860798,-0.71904504,11.886307,3.0554554,18.269571,16.714449,-20.70093,-22.949017,10.551061,5.3185654,4.785586,-14.7355585,14.321615,-22.024988,8.478378,7.2837114,5.702876,2.953906,-10.042855,7.0656667,16.619528,4.370087,5.477025,-24.198902,12.536255,-1.5587548,6.968983,-10.714121,2.3921616,-0.8234066,5.986495,2.739135,-0.416155,-20.631475,-14.323577,-27.962145,-3.2188797,14.407568,8.961144,-3.6543803,8.040595,-19.35332,1.8219757,-18.537685,-30.379942,-10.876529,-20.344889,-3.6284513,14.984947,-13.912562,-9.897215,6.4201818,18.55494,7.4621806,6.922567,-15.871601,-21.0262,-3.498588,-6.475276,7.798221,6.5958652,4.0530567,13.3024,10.049125,-14.599885,-20.782196,10.06443,15.468441,4.9079347,0.95626897,5.8687663,10.78778,11.318601,2.7148733,3.053851,-4.6512847,11.404846,13.400527,12.357959,9.837233,6.5688334,12.683237,10.08581,-14.187542,-19.376099,7.3656173,-3.4451916,7.8575554,7.0332284,4.8978744,-18.891382,13.979994,15.965708,-8.680579,9.116294,6.9921446,-0.7146917,16.998903,7.3261857,1.3725388,5.938488,-21.576925,4.542416,-1.5878973,9.616182,15.421386,-16.898514,-14.449264,12.971881,2.7279222,18.478918,12.433206,-11.190662,11.425763,-3.102503,-3.5525053,-17.272762,10.723991,-14.154502,11.2730255,-5.511742,4.752114,-21.995024,1.7941889,-21.616016,-10.654565,2.2123213,12.138051,-22.124075,7.283395,-6.234752,-3.0720708,-8.685397,9.0258465,17.677288,13.049816,9.96046,-13.883702
